/*!
 * The following copyright notice may not be removed under any circumstances.
 * 
 * Copyright:
 * Copyrighted (c) 1981, 1997 by and the property of Linotype-Hell AG and/or its
 * subsidiaries. All Rights Reserved. All Cyrillic characters designed by
 * DoubleAlex. Helvetica is a registered Trademark of Linotype-Hell AG and/or its
 * subsidiaries.
 * 
 * Trademark:
 * Please refer to the Copyright section for the font trademark attribution
 * notices.
 * 
 * Manufacturer:
 * by and the property of Linotype-Hell AG and/or its subsidiaries
 */
Cufon.registerFont({"w":556,"face":{"font-family":"HelveticaNeueCyrLight","font-weight":100,"font-stretch":"normal","units-per-em":"1000","panose-1":"2 0 5 3 4 0 0 2 0 4","ascent":"800","descent":"-200","x-height":"15","bbox":"-36 -909 1035 214","underline-thickness":"50","underline-position":"-50","stemh":"33","stemv":"38","unicode-range":"U+0020-U+E001"},"glyphs":{" ":{"w":278},"!":{"d":"151,-712r0,200r-7,332r-29,0r-7,-332r0,-200r43,0xm153,-98r0,98r-47,0r0,-98r47,0","w":259},"\"":{"d":"102,-410r-29,0r-5,-275r39,0xm241,-410r-29,0r-5,-275r39,0","w":315},"#":{"d":"135,0r-36,0r40,-216r-122,0r0,-34r128,0r34,-186r-121,0r0,-33r128,0r41,-216r36,0r-42,216r156,0r42,-216r35,0r-41,216r121,0r0,33r-128,0r-34,186r121,0r0,34r-127,0r-40,216r-36,0r40,-216r-156,0xm336,-250r35,-186r-156,0r-34,186r155,0"},"$":{"d":"287,-776v2,24,-4,55,2,75v139,1,219,71,216,198r-40,0v0,-108,-55,-159,-178,-164r0,296v113,16,243,56,243,194v0,119,-95,194,-243,193r0,88r-28,0r0,-88v-164,-4,-246,-77,-243,-225r41,0v-9,137,80,186,202,191r0,-320v-103,-19,-215,-51,-215,-181v0,-107,85,-179,215,-182r0,-75r28,0xm259,-377r0,-289v-110,5,-175,59,-175,144v0,101,93,135,175,145xm287,-332r0,314v104,-2,202,-40,202,-160v0,-112,-110,-136,-202,-154"},"%":{"d":"625,-710r-443,734r-36,0r444,-734r35,0xm576,-341v94,0,163,74,163,174v0,106,-67,181,-164,181v-97,0,-164,-73,-164,-177v0,-103,70,-178,165,-178xm208,-700v96,0,164,73,164,175v0,105,-68,179,-164,179v-97,0,-164,-72,-164,-178v0,-102,69,-176,164,-176xm573,-310v-71,0,-126,62,-126,144v0,88,54,150,129,150v72,0,127,-64,127,-148v0,-84,-55,-146,-130,-146xm207,-669v-73,0,-127,61,-127,145v0,86,53,148,128,148v73,0,128,-63,128,-149v0,-84,-54,-144,-129,-144","w":778},"&":{"d":"516,-294v-2,54,-14,103,-37,152r117,142r-51,0r-87,-107v-48,77,-113,121,-207,121v-123,0,-210,-77,-210,-185v0,-108,102,-174,186,-222v-41,-48,-97,-111,-97,-177v0,-81,63,-137,154,-137v85,0,148,57,148,134v0,92,-81,144,-149,189r170,211v15,-41,23,-77,25,-121r38,0xm261,-411v57,-32,132,-87,132,-159v0,-59,-48,-103,-111,-103v-66,0,-114,43,-114,102v0,53,58,119,93,160xm249,-365v-73,42,-167,99,-167,194v0,86,74,152,171,152v74,0,141,-43,182,-117","w":593},"'":{"d":"116,-410r-29,0r-5,-275r39,0","w":204},"(":{"d":"231,-720v-77,128,-123,296,-123,455v0,159,47,311,123,449r-35,0v-79,-139,-128,-292,-128,-452v0,-158,48,-316,128,-452r35,0","w":241},")":{"d":"173,-268v0,160,-49,313,-128,452r-35,0v76,-138,123,-290,123,-449v0,-159,-46,-327,-123,-455r35,0v80,136,128,294,128,452","w":241},"*":{"d":"323,-611r-125,41r78,105r-23,17r-77,-105r-80,103r-24,-17r80,-103r-123,-41r9,-27r123,42r0,-130r29,0r0,130r123,-42","w":352},"+":{"d":"283,-29r0,-225r-227,0r0,-33r227,0r0,-224r35,0r0,224r227,0r0,33r-227,0r0,225r-35,0","w":600},",":{"d":"164,-102v-3,100,17,190,-64,230r0,-34v23,-15,33,-43,34,-94r-20,0r0,-102r50,0","w":278},"-":{"d":"283,-290r0,39r-214,0r0,-39r214,0","w":352,"k":{"\u0442":60}},".":{"d":"164,-102r0,102r-50,0r0,-102r50,0","w":278},"\/":{"d":"344,-718r-318,727r-36,0r319,-727r35,0","w":333,"k":{"\u0447":53,"\u0441":71,"\u043e":71,"\u043c":44,"\u043b":62,"\u043a":44,"\u0437":71,"\u0434":62,"\u0431":53,"\u044f":53,"\u0423":-26,"\u041b":18}},"0":{"d":"278,-700v199,0,250,196,250,357v0,163,-51,358,-252,358v-160,0,-248,-123,-248,-347v0,-161,48,-368,250,-368xm278,-662v-132,0,-209,122,-209,332v0,135,37,309,207,309v173,0,210,-185,210,-321v0,-135,-35,-320,-208,-320"},"1":{"d":"333,-688r0,688r-42,0r0,-614v-57,57,-104,79,-183,88r0,-34v88,-19,130,-42,189,-128r36,0"},"2":{"d":"505,-37r0,37r-459,0v6,-138,127,-209,228,-277v82,-56,179,-121,179,-232v0,-94,-66,-155,-171,-155v-132,0,-179,92,-181,208r-41,0v0,-148,75,-244,224,-244v128,0,210,75,210,190v0,92,-55,149,-120,207v-65,58,-263,141,-282,266r413,0"},"3":{"d":"54,-471v2,-144,86,-229,228,-229v128,0,213,72,213,178v0,86,-62,145,-138,154v85,14,156,67,156,173v0,125,-96,210,-237,210v-154,0,-247,-90,-240,-242r39,0v-5,131,71,206,202,206v115,0,195,-70,195,-170v0,-134,-111,-161,-232,-158r0,-34v128,6,214,-40,214,-138v0,-87,-67,-143,-173,-143v-119,0,-186,68,-190,193r-37,0"},"4":{"d":"518,-211r0,35r-113,0r0,176r-40,0r0,-176r-333,0r0,-41r333,-473r40,0r0,479r113,0xm365,-211r1,-430v-25,39,-35,56,-48,74r-251,356r298,0"},"5":{"d":"478,-685r0,38r-320,0r-57,270v40,-55,103,-84,175,-84v134,0,233,100,233,237v0,137,-101,239,-238,239v-141,0,-231,-87,-234,-224r39,0v4,110,70,189,195,189v114,0,197,-85,197,-203v0,-118,-83,-203,-198,-203v-76,0,-133,32,-173,94r-39,-1r71,-352r349,0"},"6":{"d":"285,15v-169,0,-242,-128,-242,-333v0,-246,89,-382,251,-382v117,0,198,73,212,182r-41,0v-11,-85,-81,-147,-172,-147v-184,0,-212,220,-212,360v33,-92,108,-149,211,-149v130,0,228,100,228,233v0,135,-100,236,-235,236xm284,-419v-108,0,-192,86,-192,198v0,114,84,201,194,201v110,0,193,-86,193,-200v0,-115,-83,-199,-195,-199"},"7":{"d":"499,-685r0,40v-178,175,-289,425,-295,645r-43,0v5,-224,129,-491,301,-647r-406,0r0,-38r443,0"},"8":{"d":"193,-373v-83,-19,-129,-73,-129,-153v0,-108,82,-174,214,-174v133,0,214,64,214,172v0,85,-55,138,-128,155v90,13,156,75,156,177v0,131,-91,211,-240,211v-152,0,-245,-79,-245,-207v0,-103,68,-167,158,-181xm277,-664v-109,0,-172,51,-172,139v0,85,66,136,174,136v107,0,172,-51,172,-137v0,-88,-63,-138,-174,-138xm276,-356v-124,0,-199,62,-199,163v0,108,76,173,202,173v124,0,199,-66,199,-173v0,-102,-75,-163,-202,-163"},"9":{"d":"267,-700v173,0,246,130,246,337v0,164,-35,378,-247,378v-115,0,-199,-70,-213,-178r40,0v15,87,83,142,174,142v144,0,215,-147,207,-365v-34,89,-98,154,-210,154v-132,0,-230,-98,-230,-232v0,-134,100,-236,233,-236xm267,-664v-108,0,-192,86,-192,199v0,113,82,197,193,197v111,0,194,-84,194,-198v0,-112,-85,-198,-195,-198"},":":{"d":"164,-102r0,102r-50,0r0,-102r50,0xm164,-512r0,102r-50,0r0,-102r50,0","w":278},";":{"d":"164,-102v-3,100,17,190,-64,230r0,-34v23,-15,33,-43,34,-94r-20,0r0,-102r50,0xm164,-512r0,102r-50,0r0,-102r50,0","w":278},"<":{"d":"55,-252r0,-36r489,-203r0,36r-447,185r447,183r0,37","w":600},"=":{"d":"55,-343r0,-33r489,0r0,33r-489,0xm55,-160r0,-33r489,0r0,33r-489,0","w":600},">":{"d":"545,-252r-489,202r0,-37r448,-183r-448,-185r0,-36r489,203r0,36","w":600},"?":{"d":"43,-491v0,-125,67,-236,217,-236v121,0,204,74,204,179v0,93,-58,142,-121,200v-61,57,-68,73,-68,169r-39,0v-1,-100,13,-133,81,-195v50,-47,106,-98,106,-173v0,-84,-68,-144,-164,-144v-127,0,-178,100,-177,200r-39,0xm278,-102r0,102r-46,0r0,-102r46,0","w":519},"@":{"d":"708,-110r15,20v-97,68,-185,103,-306,103v-214,0,-390,-137,-390,-355v0,-232,192,-382,409,-382v180,0,333,107,333,294v0,112,-73,259,-201,259v-60,0,-88,-56,-65,-112v-30,64,-75,112,-150,112v-88,0,-133,-68,-133,-148v0,-107,80,-237,197,-237v73,0,120,45,124,116r31,-103r35,0v-28,98,-84,191,-84,301v0,31,25,45,53,45v106,0,166,-144,166,-234v0,-176,-148,-266,-307,-266v-206,0,-381,145,-381,355v0,207,172,329,363,329v116,0,198,-35,291,-97xm360,-198v104,0,162,-119,162,-224v0,-61,-36,-108,-100,-108v-99,0,-163,124,-163,213v0,63,32,119,101,119","w":800},"A":{"d":"322,-712r283,712r-48,0r-89,-230r-343,0r-91,230r-47,0r289,-712r46,0xm454,-266r-130,-330v-9,-23,-17,-51,-26,-75r-160,405r316,0","w":593,"k":{"\u2019":55,"y":18,"w":18,"v":18,"Y":37,"W":25,"V":31,"T":50}},"B":{"d":"62,-712r293,0v113,0,218,54,218,177v0,83,-55,147,-137,162v94,10,161,76,161,175v0,66,-29,122,-83,158v-52,34,-117,40,-177,40r-275,0r0,-712xm105,-675r0,288r224,0v91,0,201,-22,201,-143v0,-192,-242,-137,-425,-145xm105,-351r0,313v199,-10,449,54,449,-161v0,-204,-256,-142,-449,-152","w":630},"C":{"d":"673,-276v-13,174,-138,292,-308,292v-196,0,-326,-148,-326,-370v0,-224,133,-375,331,-375v137,0,276,86,292,231r-42,0v-25,-118,-122,-192,-252,-192v-171,0,-286,135,-286,335v0,200,113,333,284,333v156,0,249,-110,266,-254r41,0","w":704},"D":{"d":"64,-712r240,0v214,0,324,134,324,345v0,208,-94,367,-323,367r-241,0r0,-712xm107,-674r0,636r183,0v218,0,295,-131,295,-326v0,-184,-86,-310,-283,-310r-195,0","w":667},"E":{"d":"538,-712r0,38r-437,0r0,285r410,0r0,38r-410,0r0,313r441,0r0,38r-484,0r0,-712r480,0","w":560},"F":{"d":"518,-712r0,38r-405,0r0,286r364,0r0,37r-364,0r0,351r-43,0r0,-712r448,0","w":514,"k":{"A":37,".":116,",":116}},"G":{"d":"683,-348r0,348r-31,0r-6,-127r1,-46v-38,124,-153,189,-273,189v-200,0,-336,-148,-336,-364v0,-226,136,-379,336,-379v149,0,275,93,297,236r-41,0v-26,-123,-131,-198,-256,-198v-177,0,-293,135,-293,341v0,196,117,327,294,327v166,-1,274,-114,270,-291r-263,0r0,-36r301,0","w":741},"H":{"d":"607,-712r0,712r-43,0r0,-353r-457,0r0,353r-43,0r0,-712r43,0r0,321r457,0r0,-321r43,0","w":670},"I":{"d":"107,-712r0,712r-43,0r0,-712r43,0","w":170},"J":{"d":"419,-712r0,519v0,131,-57,209,-197,209v-156,1,-206,-91,-198,-241r41,0v-3,124,22,204,157,204v122,0,154,-71,154,-175r0,-516r43,0","w":481},"K":{"d":"611,-712r-328,296r348,416r-55,0r-324,-387r-148,135r0,252r-43,0r0,-712r43,0r0,409r450,-409r57,0","w":613},"L":{"d":"511,-39r0,39r-450,0r0,-712r44,0r0,673r406,0","w":500,"k":{"\u2019":79,"y":55,"Y":111,"W":74,"V":92,"T":92}},"M":{"d":"746,-712r0,712r-42,0r0,-533v0,-47,2,-92,6,-139v-12,27,-20,57,-32,84r-251,588r-42,0r-252,-581v-13,-29,-22,-59,-33,-89v2,46,5,91,5,137r0,533r-42,0r0,-712r60,0r227,528v35,82,56,139,56,139v0,0,18,-51,50,-125r231,-542r59,0","w":809},"N":{"d":"608,-712r0,712r-49,0r-399,-564v-22,-32,-43,-64,-62,-98v4,36,3,73,3,109r0,553r-42,0r0,-712r50,0r391,554v24,35,47,71,69,107v-2,-45,-3,-91,-3,-136r-1,-525r43,0","w":678},"O":{"d":"369,-729v201,0,340,154,340,378v0,220,-137,368,-340,368v-202,0,-337,-149,-337,-373v0,-222,137,-373,337,-373xm369,-691v-189,0,-293,158,-293,333v0,201,118,337,293,337v176,0,296,-134,296,-332v0,-200,-121,-338,-296,-338","w":741},"P":{"d":"575,-515v0,123,-86,200,-220,200r-246,0r0,315r-43,0r0,-712r277,0v158,-6,232,68,232,197xm532,-513v6,-109,-86,-161,-196,-161r-227,0r0,322r221,0v137,6,196,-54,202,-161","w":591,"k":{"A":55,".":144,",":144}},"Q":{"d":"711,5r-22,28r-117,-84v-50,42,-124,67,-200,67v-214,0,-340,-161,-340,-367v0,-224,137,-377,339,-377v199,0,337,151,337,370v0,113,-39,217,-107,284xm568,-99v67,-73,96,-159,96,-259v0,-196,-119,-331,-293,-331v-176,0,-295,136,-295,336v0,180,102,331,296,331v61,0,118,-17,166,-54r-112,-79r23,-29","w":741},"R":{"d":"357,-712v145,-5,227,66,227,189v0,96,-60,161,-151,178v63,10,116,32,131,110v15,76,-2,174,33,235r-48,0v-21,-35,-16,-130,-20,-175v-12,-134,-77,-152,-201,-152r-221,0r0,327r-43,0r0,-712r293,0xm541,-521v5,-105,-92,-154,-198,-154r-236,0r0,312v193,-10,424,52,434,-158","w":630},"S":{"d":"571,-509r-43,0v-8,-131,-99,-180,-224,-180v-126,0,-200,56,-200,149v0,115,109,129,251,161v110,25,234,51,234,191v0,127,-100,203,-267,203v-169,0,-282,-79,-282,-251r41,0v3,148,95,215,243,215v140,0,223,-61,223,-165v0,-125,-146,-141,-239,-162v-112,-26,-247,-47,-247,-191v0,-116,93,-188,246,-188v149,0,254,66,264,218","w":630},"T":{"d":"533,-712r0,38r-252,0r0,674r-43,0r0,-674r-253,0r0,-38r548,0","w":519,"k":{"y":92,"w":92,"u":92,"s":92,"r":92,"o":92,"i":14,"e":92,"c":92,"a":92,"A":50,";":87,":":87,".":111,"-":111,",":111}},"U":{"d":"608,-712r0,469v0,162,-105,258,-270,258v-201,0,-280,-111,-280,-294r0,-433r44,0r0,435v0,160,62,255,236,255v170,0,227,-101,227,-255r0,-435r43,0","w":672},"V":{"d":"570,-712r-265,712r-50,0r-270,-712r48,0r213,570v13,34,23,69,35,104v9,-35,22,-68,34,-102r211,-572r44,0","k":{"u":18,"r":18,"o":37,"e":37,"a":37,"A":43,";":37,":":37,".":118,"-":37,",":92}},"W":{"d":"893,-712r-204,712r-49,0r-167,-562v-11,-36,-22,-73,-30,-110r-194,672r-49,0r-207,-712r46,0r157,546v11,39,22,80,30,120v7,-40,19,-79,30,-118r161,-548r53,0r165,553v11,37,21,75,30,113v7,-38,17,-76,28,-113r157,-553r43,0","w":889,"k":{"o":18,"i":-24,"e":18,"a":18,"A":6,";":18,":":18,".":55,"-":37,",":55}},"X":{"d":"558,-712r-254,346r267,366r-53,0r-241,-333r-243,333r-51,0r268,-366r-253,-346r52,0r227,315r232,-315r49,0"},"Y":{"d":"596,-712r-288,415r0,297r-43,0r0,-297r-287,-415r52,0r226,328v11,16,22,33,32,50v10,-16,19,-32,30,-48r229,-330r49,0","w":574,"k":{"v":18,"u":37,"q":74,"p":55,"o":74,"e":74,"a":74,"A":55,";":55,":":55,".":116,"-":98,",":116}},"Z":{"d":"528,-712r0,42r-484,632r493,0r0,38r-540,0r0,-43r484,-631r-454,1r0,-39r501,0","w":537},"[":{"d":"231,-721r0,33r-98,0r0,839r98,0r0,33r-137,0r0,-905r137,0","w":241},"\\":{"d":"344,9r-36,0r-318,-727r35,0","w":333},"]":{"d":"148,-722r0,906r-138,0r0,-33r99,0r0,-839r-99,0r0,-34r138,0","w":241},"^":{"d":"116,-274r165,-411r39,0r165,411r-39,0r-146,-372r-145,372r-39,0","w":600},"_":{"d":"0,125r0,-50r500,0r0,50r-500,0","w":500},"`":{"d":"19,-736r121,140r-38,0r-135,-140r52,0","w":167},"a":{"d":"499,-36r0,32v-60,16,-106,7,-100,-80r0,-25v-43,84,-102,123,-200,123v-106,0,-169,-53,-169,-143v0,-116,98,-149,196,-157v134,-11,149,-13,163,-35v27,-95,-22,-171,-138,-171v-95,0,-147,47,-155,137r-38,0v7,-111,77,-171,197,-171v66,0,120,19,152,55v30,34,29,76,29,119r0,265v0,30,0,55,37,55v9,0,14,-1,26,-4xm397,-290v-90,68,-324,-6,-324,157v0,69,51,112,133,112v110,0,191,-76,191,-179r0,-90","w":500},"b":{"d":"98,-712r0,321v32,-87,98,-138,195,-138v138,0,226,105,226,272v0,167,-87,273,-226,273v-102,0,-167,-52,-197,-139r0,123r-38,0r0,-712r40,0xm286,-494v-114,0,-188,93,-188,236v0,146,75,240,191,240v115,0,189,-92,189,-237v1,-148,-73,-239,-192,-239"},"c":{"d":"489,-180v-16,123,-96,195,-218,195v-156,0,-235,-122,-235,-269v0,-166,94,-273,240,-273v118,0,196,64,209,172r-41,0v-11,-83,-74,-138,-167,-138v-122,0,-200,93,-200,237v0,143,77,237,193,237v98,0,166,-61,179,-161r40,0","w":519},"d":{"d":"496,-712r0,712r-38,0r0,-125v-26,90,-100,141,-195,141v-141,0,-229,-103,-229,-270v0,-167,90,-274,229,-274v95,0,163,51,193,134r0,-318r40,0xm264,-493v-115,0,-188,93,-188,239v0,146,72,236,189,236v118,0,192,-91,192,-238v0,-120,-57,-237,-193,-237"},"e":{"d":"485,-174v-18,112,-97,191,-219,191v-141,0,-233,-105,-233,-268v0,-163,95,-275,233,-275v157,0,228,127,224,278r-415,0v0,118,57,231,192,231v94,0,158,-57,178,-157r40,0xm449,-283v0,-104,-59,-207,-183,-207v-126,0,-180,97,-191,207r374,0","w":519},"f":{"d":"254,-713r0,36v-21,-2,-27,-3,-40,-3v-104,2,-78,83,-82,168r107,0r0,35r-107,0r0,477r-40,0r0,-477r-89,0r0,-35r89,0v0,-111,-13,-203,120,-204v15,0,22,1,42,3","w":241,"k":{"\u2019":-18}},"g":{"d":"261,161v128,0,184,-58,181,-201r0,-108v-31,83,-97,131,-192,131v-132,0,-217,-98,-217,-249v0,-157,89,-260,224,-260v93,0,155,51,187,131r0,-117r37,0r0,471v4,167,-71,236,-222,236v-123,0,-194,-56,-202,-157r41,0v6,84,72,123,163,123xm258,-490v-112,0,-184,86,-184,219v0,134,70,218,181,218v127,0,187,-103,187,-222v0,-130,-73,-215,-184,-215","w":537},"h":{"d":"273,-491v-118,0,-175,94,-175,231r0,260r-40,0r0,-712r40,0r-1,316v28,-75,88,-129,184,-129v126,0,183,81,183,197r0,328r-40,0r0,-322v0,-96,-41,-169,-151,-169","w":519},"i":{"d":"104,-712r0,101r-40,0r0,-101r40,0xm104,-512r0,512r-40,0r0,-512r40,0","w":168},"j":{"d":"105,-512r0,566v5,99,-37,142,-141,131r0,-34v76,4,101,-18,101,-94r0,-569r40,0xm105,-712r0,100r-40,0r0,-100r40,0","w":168},"k":{"d":"468,-512r-225,191r240,321r-51,0r-219,-293r-116,99r0,194r-40,0r0,-712r40,0r0,472r316,-272r55,0","w":463},"l":{"d":"104,-712r0,712r-40,0r0,-712r40,0","w":168},"m":{"d":"380,-338v5,-100,-39,-151,-124,-151v-98,0,-157,75,-157,198r0,291r-40,0r0,-512r38,0r0,104v26,-66,82,-118,167,-118v77,0,128,38,149,110v32,-68,84,-110,166,-110v105,0,162,69,162,165r0,361r-40,0r0,-346v0,-83,-35,-143,-130,-143v-97,0,-151,85,-151,174r0,315r-40,0r0,-338","w":796},"n":{"d":"276,-490v-117,0,-179,83,-179,225r0,265r-40,0r0,-512r39,0r0,113v36,-82,94,-127,189,-127v115,0,180,73,180,190r0,336r-40,0r0,-316v0,-98,-32,-174,-149,-174","w":519},"o":{"d":"270,-527v143,0,236,107,236,274v0,164,-93,268,-237,268v-145,0,-238,-106,-238,-271v0,-163,95,-271,239,-271xm269,-492v-118,0,-197,95,-197,236v0,144,77,236,198,236v118,0,194,-92,194,-233v0,-145,-77,-239,-195,-239","w":537},"p":{"d":"100,-512r0,122v33,-90,97,-136,191,-136v139,0,229,107,229,273v0,163,-91,271,-228,271v-95,0,-164,-48,-190,-134r0,301r-40,0r0,-697r38,0xm289,-492v-119,0,-189,89,-189,240v0,119,55,236,190,236v114,0,188,-94,188,-237v0,-147,-73,-239,-189,-239"},"q":{"d":"494,-512r0,697r-40,0r0,-302v-32,85,-100,132,-193,132v-138,0,-226,-105,-226,-269v0,-167,90,-274,230,-274v101,0,159,53,191,136r0,-120r38,0xm266,-493v-117,0,-190,92,-190,240v0,144,73,234,189,234v116,0,190,-91,190,-235v0,-149,-71,-239,-189,-239"},"r":{"d":"294,-516r0,41v-70,-3,-118,20,-156,69v-42,54,-43,119,-43,185r0,221r-40,0r0,-512r39,0r0,135v38,-100,97,-139,200,-139","w":278,"k":{"\u2019":-18,"y":-18,"v":-18,".":74,"-":55,",":74}},"s":{"d":"429,-363r-41,0v-8,-94,-64,-128,-158,-128v-85,0,-139,38,-139,100v0,79,79,89,163,108v83,19,190,41,190,148v0,90,-81,151,-202,151v-129,0,-209,-69,-209,-188r40,0v0,103,63,152,171,152v95,0,160,-45,160,-113v0,-82,-98,-98,-159,-112v-82,-19,-196,-32,-196,-142v0,-87,70,-139,187,-139v116,0,191,54,193,163","w":481},"t":{"d":"245,-512r0,35r-110,0r0,347v0,53,-2,96,68,96v10,0,23,-1,42,-4r0,37v-22,3,-31,4,-48,4v-108,0,-102,-67,-102,-149r0,-331r-95,0r0,-35r95,0r0,-161r40,0r0,161r110,0","w":259},"u":{"d":"458,-512r0,512r-38,0r0,-108v-33,75,-91,123,-184,123v-122,0,-181,-79,-181,-197r0,-330r40,0r0,321v0,91,33,171,149,171v123,0,174,-107,174,-214r0,-278r40,0","w":519},"v":{"d":"447,-512r-194,512r-47,0r-208,-512r44,0r147,360v15,37,27,75,41,112r175,-472r42,0","w":444,"k":{".":74,",":74}},"w":{"d":"705,-512r-165,512r-46,0r-121,-389v-7,-23,-12,-39,-21,-76v-10,38,-14,54,-21,75r-122,390r-48,0r-165,-512r44,0r119,374v7,23,12,43,26,94v10,-32,16,-64,26,-96r116,-372r50,0r116,374v7,22,12,41,26,93v12,-47,17,-67,25,-91r120,-376r41,0","w":704,"k":{".":55,",":55}},"x":{"d":"432,-512r-185,242r205,270r-52,0r-179,-240r-180,240r-48,0r203,-268r-187,-244r52,0r160,214r163,-214r48,0","w":444},"y":{"d":"447,-512r-221,565v-30,91,-64,144,-179,129r0,-36v112,19,121,-55,161,-147r-217,-511r45,0r169,401v8,19,10,25,23,64v12,-36,17,-52,24,-69r152,-396r43,0","w":444,"k":{".":74,",":74}},"z":{"d":"401,-512r0,33r-347,444r362,0r0,35r-407,0r0,-38r343,-439r-318,0r0,-35r367,0","w":426},"{":{"d":"325,185v-40,0,-89,-11,-119,-38v-70,-62,-54,-149,-54,-252v0,-101,-25,-135,-142,-151r0,-26v147,-13,142,-84,142,-221v0,-65,0,-137,54,-182v31,-26,79,-38,119,-38r0,26v-51,2,-103,19,-123,69v-52,128,50,342,-140,359v139,17,124,125,125,249v0,36,-1,77,15,110v23,49,72,67,123,69r0,26","w":333},"|":{"d":"93,214r0,-1000r36,0r0,1000r-36,0","w":222},"}":{"d":"325,-256v-147,13,-142,84,-142,221v0,65,0,137,-54,182v-31,26,-79,38,-119,38r0,-26v51,-2,103,-19,123,-69v52,-128,-50,-342,140,-359v-139,-17,-124,-125,-125,-249v0,-36,1,-77,-15,-110v-23,-49,-72,-67,-123,-69r0,-26v40,0,89,11,119,38v70,62,54,149,54,252v0,101,25,135,142,151r0,26","w":333},"~":{"d":"158,-324v80,-1,203,75,282,75v48,0,79,-40,90,-82r27,0v-11,58,-49,115,-116,115v-70,0,-219,-76,-282,-76v-47,0,-79,41,-89,83r-28,0v12,-59,48,-115,116,-115","w":600},"\u0410":{"d":"322,-712r283,712r-48,0r-89,-230r-343,0r-91,230r-47,0r289,-712r46,0xm454,-266r-130,-330v-9,-23,-17,-51,-26,-75r-160,405r316,0","w":593,"k":{"\u0442":24,"\u2019":55,"\u201d":55,"\u040b":44,"\u0402":44,"\u0427":41,"\u0422":50}},"\u0411":{"d":"63,-712r488,0r0,38r-445,0r0,278r264,0v142,0,227,72,227,197v0,161,-150,199,-231,199r-303,0r0,-712xm377,-358r-271,0r0,320r247,0v152,0,201,-82,201,-160v0,-74,-48,-160,-177,-160","w":630,"k":{"\u0427":41,"\u041b":42}},"\u0412":{"d":"62,-712r293,0v113,0,218,54,218,177v0,83,-55,147,-137,162v94,10,161,76,161,175v0,66,-29,122,-83,158v-52,34,-117,40,-177,40r-275,0r0,-712xm105,-675r0,288r224,0v91,0,201,-22,201,-143v0,-192,-242,-137,-425,-145xm105,-351r0,313v199,-10,449,54,449,-161v0,-204,-256,-142,-449,-152","w":630,"k":{"\u041b":42}},"\u0413":{"d":"504,-674r-394,0r0,674r-43,0r0,-712r437,0r0,38","w":500,"k":{"\u044e":124,"\u044d":148,"\u0446":124,"\u0443":124,"\u0440":124,"\u043e":148,"\u043d":124,"\u043c":124,"\u043b":176,"\u0438":124,"\u0436":124,"\u0435":148,"\u0434":176,"\u0432":124,"\u0430":148,"\u044f":148,"\u041b":97,"\u0414":56,"\u0410":99,";":115,":":115,"\/":141,".":159,"-":159,",":159}},"\u0414":{"d":"611,185r0,-185r-558,0r0,185r-43,0r0,-223r63,0v104,-192,106,-559,106,-674r394,0r0,674r81,0r0,223r-43,0xm530,-675r-308,0v-2,102,-12,464,-103,637r411,0r0,-637","w":670},"\u0415":{"d":"538,-712r0,38r-437,0r0,285r410,0r0,38r-410,0r0,313r441,0r0,38r-484,0r0,-712r480,0","w":560},"\u0416":{"d":"942,0r-303,-405r-128,117r0,288r-43,0r0,-288r-128,-117r-303,405r-53,0r325,-434r-305,-278r55,0r409,374r0,-374r43,0r0,374r409,-374r56,0r-305,278r325,434r-54,0","w":980},"\u0417":{"d":"589,-198v0,135,-130,213,-267,213v-169,0,-282,-79,-282,-251r41,0v3,148,95,215,243,215v111,0,224,-70,224,-177v0,-152,-139,-160,-285,-153r0,-38v140,8,268,-15,268,-155v0,-101,-91,-147,-201,-147v-125,0,-217,49,-225,180r-43,0v10,-152,119,-218,268,-218v137,0,244,56,244,185v0,105,-74,160,-145,173v99,11,160,60,160,173","w":630,"k":{"\u041b":42}},"\u0418":{"d":"564,0r0,-657r-3,0r-444,657r-53,0r0,-712r43,0r0,657r3,0r443,-657r54,0r0,712r-43,0","w":670},"\u0419":{"d":"479,-881v-8,64,-64,120,-131,120v-74,0,-130,-45,-139,-120r33,0v27,126,186,107,204,0r33,0xm564,0r0,-657r-3,0r-444,657r-53,0r0,-712r43,0r0,657r3,0r443,-657r54,0r0,712r-43,0","w":670},"\u041a":{"d":"611,-712r-328,296r348,416r-55,0r-324,-387r-148,135r0,252r-43,0r0,-712r43,0r0,409r450,-409r57,0","w":613,"k":{"\u042d":18,"\u0424":18,"\u0421":18,"\u041e":18}},"\u041b":{"d":"564,0r0,-674r-320,0r-15,448v-3,100,-28,235,-138,235v-21,0,-56,-3,-72,-9r0,-40v19,10,51,12,72,12v74,0,94,-123,96,-198r15,-486r405,0r0,712r-43,0","w":670},"\u041c":{"d":"746,-712r0,712r-42,0r0,-533v0,-47,2,-92,6,-139v-12,27,-20,57,-32,84r-251,588r-42,0r-252,-581v-13,-29,-22,-59,-33,-89v2,46,5,91,5,137r0,533r-42,0r0,-712r60,0r227,528v35,82,56,139,56,139v0,0,18,-51,50,-125r231,-542r59,0","w":809},"\u041d":{"d":"607,-712r0,712r-43,0r0,-353r-457,0r0,353r-43,0r0,-712r43,0r0,321r457,0r0,-321r43,0","w":670},"\u041e":{"d":"369,-729v201,0,340,154,340,378v0,220,-137,368,-340,368v-202,0,-337,-149,-337,-373v0,-222,137,-373,337,-373xm369,-691v-189,0,-293,158,-293,333v0,201,118,337,293,337v176,0,296,-134,296,-332v0,-200,-121,-338,-296,-338","w":741,"k":{"\u0409":24,"\u0425":18,"\u0422":18,"\u041b":42,"\u0416":18,"\u0414":18}},"\u041f":{"d":"607,-712r0,712r-43,0r0,-674r-457,0r0,674r-43,0r0,-712r543,0","w":670},"\u0420":{"d":"575,-515v0,123,-86,200,-220,200r-246,0r0,315r-43,0r0,-712r277,0v158,-6,232,68,232,197xm532,-513v6,-109,-86,-161,-196,-161r-227,0r0,322r221,0v137,6,196,-54,202,-161","w":591,"k":{"\u0434":41,"\u041b":82,"\u0414":66,"\u0410":55,"\/":44,".":144,",":144}},"\u0421":{"d":"673,-276v-13,174,-138,292,-308,292v-196,0,-326,-148,-326,-370v0,-224,133,-375,331,-375v137,0,276,86,292,231r-42,0v-25,-118,-122,-192,-252,-192v-171,0,-286,135,-286,335v0,200,113,333,284,333v156,0,249,-110,266,-254r41,0","w":704,"k":{"\u0409":24,"\u0425":18,"\u0422":18,"\u041b":42,"\u0416":18,"\u0414":18}},"\u0422":{"d":"533,-712r0,38r-252,0r0,674r-43,0r0,-674r-253,0r0,-38r548,0","w":519,"k":{"\u044e":78,"\u044d":92,"\u044c":78,"\u044b":78,"\u0449":78,"\u0443":92,"\u0440":78,"\u043e":92,"\u043d":78,"\u043c":78,"\u043b":117,"\u043a":78,"\u0438":78,"\u0435":92,"\u0432":78,"\u0430":92,"\u044f":92,"\u0451":49,"\u042d":18,"\u0424":26,"\u0421":18,"\u041e":18,"\u041b":52,"\u0410":50,";":87,":":87,"\/":106,".":111,"-":111,",":111}},"\u0423":{"d":"266,-148r-278,-564r48,0r251,518r238,-518r46,0r-297,636v-38,83,-118,112,-194,66r0,-45v49,47,131,28,158,-31","k":{"\u044e":26,"\u044d":37,"\u0449":26,"\u0448":26,"\u0447":33,"\u0446":26,"\u0445":26,"\u0444":37,"\u0442":26,"\u0441":37,"\u0440":26,"\u043f":26,"\u043e":37,"\u043d":26,"\u043c":26,"\u043b":57,"\u043a":26,"\u0439":26,"\u0438":26,"\u0437":37,"\u0436":26,"\u0435":37,"\u0434":57,"\u0433":26,"\u0432":26,"\u0431":37,"\u0430":37,"\u044f":33,"\u0459":57,"\u0409":41,"\u0408":79,"\u0421":18,"\u041b":57,"\u0414":41,"\u0410":57,";":37,":":37,"\/":79,".":118,"-":53,",":118}},"\u0424":{"d":"382,-82r0,82r-42,0r0,-82v-163,0,-311,-91,-311,-276v0,-180,145,-279,311,-279r0,-75r42,0r0,75v166,0,311,99,311,279v0,185,-148,276,-311,276xm649,-358v0,-158,-126,-244,-267,-241r0,481v147,-10,267,-75,267,-240xm340,-599v-142,-3,-267,83,-267,241v0,165,120,230,267,240r0,-481","w":722,"k":{"\u0422":26,"\u041b":59}},"\u0425":{"d":"558,-712r-254,346r267,366r-53,0r-241,-333r-243,333r-51,0r268,-366r-253,-346r52,0r227,315r232,-315r49,0"},"\u0426":{"d":"636,185r0,-185r-573,0r0,-712r43,0r0,674r456,0r0,-674r43,0r0,674r74,0r0,223r-43,0","w":685},"\u0427":{"d":"523,0r0,-352v-24,10,-153,49,-233,49v-156,0,-227,-50,-227,-234r0,-175r43,0r0,162v0,137,34,210,180,210v103,0,208,-36,237,-49r0,-323r42,0r0,712r-42,0","w":630},"\u0428":{"d":"63,0r0,-712r43,0r0,674r376,0r0,-674r43,0r0,674r377,0r0,-674r42,0r0,712r-881,0","w":1000},"\u0429":{"d":"975,185r0,-185r-912,0r0,-712r43,0r0,674r376,0r0,-674r43,0r0,674r376,0r0,-674r43,0r0,674r74,0r0,223r-43,0","w":1024},"\u042a":{"d":"754,-199v0,170,-126,199,-207,199r-303,0r0,-674r-249,0r0,-38r292,0r0,316r244,0v142,0,223,72,223,197xm711,-198v0,-74,-44,-160,-173,-160r-251,0r0,320r257,0v143,0,167,-107,167,-160","w":778,"k":{"\u2019":79,"\u201d":79}},"\u042b":{"d":"702,0r0,-712r43,0r0,712r-43,0xm366,0r-303,0r0,-712r43,0r0,316r244,0v142,0,223,72,223,197v0,170,-126,199,-207,199xm357,-358r-251,0r0,320r257,0v143,0,167,-107,167,-160v0,-74,-44,-160,-173,-160","w":809},"\u042c":{"d":"366,0r-303,0r0,-712r43,0r0,316r244,0v142,0,223,72,223,197v0,170,-126,199,-207,199xm357,-358r-251,0r0,320r257,0v143,0,167,-107,167,-160v0,-74,-44,-160,-173,-160","w":593,"k":{"\u2019":79,"\u201d":79,"\u0427":66,"\u0423":44,"\u0422":66}},"\u042d":{"d":"665,-354v0,222,-130,370,-326,370v-170,0,-295,-118,-308,-292r41,0v17,144,110,254,266,254v170,0,283,-132,284,-331r-376,0r0,-38r375,0v-13,-180,-124,-299,-285,-299v-130,0,-227,74,-252,192r-42,0v16,-145,155,-231,292,-231v198,0,331,151,331,375","w":704,"k":{"\u0425":18,"\u0422":18,"\u041b":42,"\u0416":18,"\u0414":18}},"\u042e":{"d":"608,-729v201,0,340,154,340,378v0,220,-137,368,-340,368v-201,0,-336,-148,-337,-370r-164,0r0,353r-43,0r0,-712r43,0r0,321r165,0v14,-203,147,-338,336,-338xm608,-691v-189,0,-293,158,-293,333v0,201,118,337,293,337v176,0,296,-134,296,-332v0,-200,-121,-338,-296,-338","w":980,"k":{"\u0409":24,"\u0425":18,"\u0422":18,"\u041b":42,"\u0416":18,"\u0414":18}},"\u042f":{"d":"527,0r0,-327r-259,0r-236,327r-51,0r242,-333v-95,-15,-175,-78,-175,-190v0,-118,88,-189,225,-189r297,0r0,712r-43,0xm527,-675r-254,0v-96,0,-182,45,-182,149v0,115,88,162,205,162r231,0r0,-311","w":630},"\u2020":{"d":"503,-479r0,35r-206,0r0,589r-39,0r0,-589r-205,0r0,-35r205,0r0,-233r39,0r0,233r206,0"},"\u00b0":{"d":"200,-700v79,0,142,64,142,142v0,78,-65,141,-142,141v-78,0,-141,-64,-141,-141v0,-79,64,-142,141,-142xm200,-667v-60,0,-108,49,-108,109v0,60,49,108,108,108v60,0,109,-49,109,-108v0,-61,-50,-109,-109,-109","w":400},"\u0490":{"d":"106,-674r0,674r-43,0r0,-712r394,0r0,-170r43,0r0,208r-394,0","w":500,"k":{"\u044d":148,"\u043e":148,"\u0435":148,"\u0430":148,"\u044f":148,"\u041b":66,"\u0414":56,"\u0410":99,";":115,":":115,".":159}},"\u00a3":{"d":"387,17v-68,0,-130,-47,-201,-47v-40,0,-71,12,-117,45r-26,-36v92,-65,154,-184,86,-306r-80,0r0,-24r65,0v-30,-55,-64,-104,-64,-169v0,-109,92,-183,228,-183v158,0,231,88,231,236r-40,0v-2,-132,-67,-200,-192,-200v-111,0,-186,60,-186,149v0,65,40,112,67,167r159,0r0,24r-145,0v60,123,3,223,-79,296v37,-19,65,-33,108,-33v56,0,125,44,183,44v46,0,101,-27,137,-67r22,30v-40,42,-97,74,-156,74"},"\u00a7":{"d":"447,-534r-40,0v-4,-88,-48,-141,-140,-141v-71,0,-120,41,-120,100v0,66,61,96,111,124v108,60,141,83,175,108v111,82,85,222,-43,265v34,29,60,65,60,112v0,84,-70,142,-171,142v-114,0,-182,-69,-182,-185r40,0v2,98,51,150,142,150v119,0,171,-121,88,-188v-41,-34,-125,-80,-188,-118v-62,-38,-129,-81,-129,-163v0,-64,40,-116,110,-141v-107,-82,-40,-241,108,-241v113,0,176,63,179,176xm186,-449v-52,22,-97,57,-97,119v0,61,58,98,104,126v56,34,115,66,169,104v117,-34,133,-145,41,-215v-35,-27,-151,-94,-217,-134"},"\u2022":{"d":"250,-534v100,0,178,81,178,178v0,99,-81,178,-178,178v-99,0,-178,-81,-178,-178v0,-100,81,-178,178,-178","w":500},"\u00b6":{"d":"534,-681r-56,0r0,847r-37,0r0,-847r-136,0r0,847r-36,0r0,-435v-129,0,-210,-94,-210,-217v0,-156,107,-226,247,-226r228,0r0,31","w":600},"\u0406":{"d":"107,-712r0,712r-43,0r0,-712r43,0","w":170},"\u00ae":{"d":"199,-729v102,0,183,83,183,183v0,102,-83,184,-183,184v-102,0,-183,-84,-183,-184v0,-102,83,-183,183,-183xm199,-708v-90,0,-162,74,-162,162v0,90,74,163,162,163v90,0,162,-74,162,-163v0,-89,-74,-162,-162,-162xm131,-644v68,0,148,-11,150,57v0,23,-14,38,-35,46v40,15,27,57,39,91r-25,0v-3,-6,-5,-13,-5,-23v0,-64,-43,-58,-101,-58r0,81r-23,0r0,-194xm154,-552v45,-2,104,12,104,-37v0,-50,-60,-30,-104,-34r0,71","w":400},"\u00a9":{"d":"400,-729v204,0,366,166,366,366v0,203,-166,366,-366,366v-203,0,-366,-167,-366,-366v0,-204,166,-366,366,-366xm400,-702v-189,0,-339,153,-339,339v0,189,154,339,339,339v189,0,340,-153,340,-339v0,-189,-154,-339,-340,-339xm575,-283v-13,80,-86,130,-163,130v-121,0,-197,-101,-197,-214v0,-112,73,-212,189,-212v83,0,160,56,168,140r-32,0v-12,-68,-66,-111,-134,-111v-101,0,-155,90,-155,181v0,97,59,187,161,187v64,0,117,-39,132,-101r31,0","w":800},"\u2122":{"d":"235,-356r0,-328r-129,0r0,-28r288,0r0,28r-129,0r0,328r-30,0xm465,-356r0,-356r46,0r123,315r123,-315r44,0r0,356r-27,0r0,-323r-127,323r-27,0r-127,-323r0,323r-28,0","w":990},"\u0402":{"d":"260,-144r0,144r-43,0r0,-674r-221,0r0,-38r545,0r0,38r-281,0r0,392v33,-90,97,-136,191,-136v158,0,219,124,219,234v0,149,-103,285,-246,307r0,-38v123,-26,207,-144,207,-269v0,-93,-52,-199,-189,-199v-111,0,-182,88,-182,239","w":704,"k":{"\u0423":26}},"\u0452":{"d":"475,-178v0,195,-74,332,-247,362r0,-33v127,-20,207,-131,207,-244r0,-92v0,-53,-6,-168,-146,-168v-115,0,-186,89,-186,215r0,138r-40,0r0,-477r-63,0r0,-35r63,0r0,-200r39,0r0,200r263,0r0,35r-263,0r0,213r2,0v26,-77,106,-122,186,-122v181,0,185,145,185,208","w":519,"k":{"\u0443":26}},"\u2260":{"d":"236,-194r80,-150r-264,0r0,-33r282,0r76,-143r29,15r-68,128r170,0r0,33r-188,0r-81,150r269,0r0,33r-286,0r-75,141r-29,-15r67,-126r-166,0r0,-33r184,0","w":600},"\u0403":{"d":"371,-909r-132,140r-36,0r117,-140r51,0xm504,-674r-394,0r0,674r-43,0r0,-712r437,0r0,38","w":500,"k":{";":115,":":115,".":159}},"\u0453":{"d":"308,-736r-132,140r-36,0r117,-140r51,0xm97,-477r0,477r-40,0r0,-512r340,0r0,35r-300,0","w":400},"\u221e":{"d":"361,-291v51,-46,114,-111,188,-111v76,0,126,57,126,130v0,76,-49,133,-126,133v-77,0,-135,-61,-188,-109v-57,48,-107,108,-188,108v-78,0,-126,-56,-126,-130v0,-72,49,-132,123,-132v74,0,140,65,191,111xm383,-269v47,39,100,97,166,97v58,0,93,-40,93,-99v0,-55,-34,-98,-91,-98v-59,0,-125,62,-168,100xm338,-269v-45,-39,-107,-100,-170,-100v-54,0,-88,47,-88,98v0,58,34,98,93,98v62,0,122,-56,165,-96","w":722},"\u00b1":{"d":"279,-76r0,-188r-227,0r0,-33r227,0r0,-189r35,0r0,189r227,0r0,33r-227,0r0,188r-35,0xm52,4r0,-33r489,0r0,33r-489,0","w":600},"\u2264":{"d":"52,-260r0,-36r489,-200r0,37r-445,181r445,180r0,37xm52,-19r489,0r0,33r-489,0r0,-33","w":600},"\u2265":{"d":"541,-260r-489,199r0,-37r446,-180r-446,-181r0,-37r489,200r0,36xm541,-19r0,33r-489,0r0,-33r489,0","w":600},"\u0456":{"d":"104,-712r0,101r-40,0r0,-101r40,0xm104,-512r0,512r-40,0r0,-512r40,0","w":168},"\u00b5":{"d":"247,-20v111,0,174,-109,174,-222r0,-270r40,0r0,512r-39,0r0,-106v-43,84,-98,122,-176,122v-62,0,-116,-30,-146,-84r0,253r-41,0r0,-697r41,0r0,325v0,95,42,167,147,167","w":519},"\u0491":{"d":"397,-673r0,196r-300,0r0,477r-40,0r0,-512r300,0r0,-161r40,0","w":400,"k":{"\u0441":26,"\u043e":26,"\u0435":26,"\u0430":26}},"\u0408":{"d":"419,-712r0,519v0,131,-57,209,-197,209v-156,1,-206,-91,-198,-241r41,0v-3,124,22,204,157,204v122,0,154,-71,154,-175r0,-516r43,0","w":481},"\u0404":{"d":"665,-276v-13,174,-138,292,-308,292v-196,0,-326,-148,-326,-370v0,-224,133,-375,331,-375v137,0,276,86,292,231r-42,0v-25,-118,-122,-192,-252,-192v-161,0,-272,119,-285,299r375,0r0,38r-376,0v1,199,114,331,284,331v156,0,249,-110,266,-254r41,0","w":704},"\u0454":{"d":"489,-171v-19,117,-98,186,-217,186v-156,0,-235,-122,-235,-269v0,-166,94,-273,240,-273v115,0,192,61,208,164r-41,0v-14,-79,-76,-130,-166,-130v-113,0,-189,80,-199,207r274,0r0,34r-275,0v2,141,78,233,193,233v95,0,162,-57,178,-152r40,0","w":519},"\u0407":{"d":"105,-712r0,712r-43,0r0,-712r43,0xm194,-887r0,103r-43,0r0,-103r43,0xm19,-887r0,103r-42,0r0,-103r42,0","w":170},"\u0457":{"d":"193,-714r0,103r-43,0r0,-103r43,0xm18,-714r0,103r-42,0r0,-103r42,0xm104,-512r0,512r-41,0r0,-512r41,0","w":168},"\u0409":{"d":"565,-712r0,318r193,0v142,0,223,70,223,195v0,170,-126,199,-207,199r-252,0r0,-675r-282,0r-15,449v-3,100,-28,235,-138,235v-21,0,-56,-3,-72,-9r0,-40v19,10,51,12,72,12v74,0,94,-123,96,-198r15,-486r367,0xm765,-358r-200,0r0,321r206,0v143,0,167,-108,167,-161v0,-74,-44,-160,-173,-160","w":1000,"k":{"\u2019":79,"\u201d":79,"\u0423":44,"\u0422":66}},"\u0459":{"d":"749,-157v0,105,-73,157,-176,157r-175,0r0,-477r-195,0r-10,274v-10,177,-57,238,-176,203r0,-36v100,41,133,-33,138,-171r11,-305r272,0r0,210r118,0v154,0,193,71,193,145xm707,-157v0,-125,-145,-110,-269,-110r0,232r129,0v88,0,140,-47,140,-122","w":778,"k":{"\u0443":18,"\u0442":73,"\u2019":62,"\u201d":62}},"\u040a":{"d":"774,0r-273,0r0,-358r-395,0r0,358r-43,0r0,-712r43,0r0,318r395,0r0,-318r43,0r0,318r214,0v142,0,223,70,223,195v0,170,-126,199,-207,199xm765,-358r-221,0r0,321r227,0v143,0,167,-108,167,-161v0,-74,-44,-160,-173,-160","w":1000,"k":{"\u2019":79,"\u201d":79,"\u0423":44,"\u0422":66}},"\u045a":{"d":"573,0r-196,0r0,-267r-282,0r0,267r-40,0r0,-512r40,0r0,210r282,0r0,-210r40,0r0,210r139,0v154,0,193,71,193,145v0,105,-73,157,-176,157xm707,-157v0,-131,-160,-109,-290,-110r0,232r150,0v88,0,140,-47,140,-122","w":778,"k":{"\u0443":18,"\u0442":73,"\u2019":62,"\u201d":62}},"\u0458":{"d":"105,-512r0,566v5,99,-37,142,-141,131r0,-34v76,4,101,-18,101,-94r0,-569r40,0xm105,-712r0,100r-40,0r0,-100r40,0","w":168},"\u0405":{"d":"571,-509r-43,0v-8,-131,-99,-180,-224,-180v-126,0,-200,56,-200,149v0,115,109,129,251,161v110,25,234,51,234,191v0,127,-100,203,-267,203v-169,0,-282,-79,-282,-251r41,0v3,148,95,215,243,215v140,0,223,-61,223,-165v0,-125,-146,-141,-239,-162v-112,-26,-247,-47,-247,-191v0,-116,93,-188,246,-188v149,0,254,66,264,218","w":630},"\u00ac":{"d":"55,-343r0,-33r489,0r0,216r-34,0r0,-183r-455,0","w":600},"\u221a":{"d":"506,-785r-215,999r-32,0r-178,-366r-44,21r-13,-27r73,-36r173,359r203,-950r33,0","w":600},"\u0192":{"d":"415,-428r-7,33r-120,0r-73,382v-18,92,-42,196,-156,196v-19,0,-28,-1,-50,-6r6,-36v23,4,28,4,43,4v94,0,105,-109,119,-180r69,-360r-110,0r7,-33r109,0v28,-122,23,-273,175,-271v20,0,36,1,60,5r-7,36v-23,-3,-36,-5,-52,-5v-121,3,-109,137,-134,235r121,0"},"\u2248":{"d":"158,-395v80,-1,203,75,282,75v48,0,79,-40,90,-82r27,0v-11,58,-49,115,-116,115v-70,0,-219,-76,-282,-76v-47,0,-79,41,-89,83r-28,0v12,-59,48,-115,116,-115xm158,-254v80,-1,203,75,282,75v48,0,79,-40,90,-82r27,0v-11,58,-49,115,-116,115v-70,0,-219,-76,-282,-76v-47,0,-79,41,-89,83r-28,0v12,-59,48,-115,116,-115","w":600},"\u2206":{"d":"335,-712r291,712r-612,0r287,-712r34,0xm65,-35r507,0r-255,-632","w":639},"\u00ab":{"d":"311,-420r0,48r-88,105r88,100r0,48r-117,-128r0,-39xm181,-418r0,47r-86,104r86,99r0,49r-115,-128r0,-41","w":389},"\u00bb":{"d":"208,-418r115,129r0,39r-115,131r0,-48r87,-103r-87,-98r0,-50xm79,-418r116,128r0,39r-116,132r0,-46r88,-105r-88,-101r0,-47","w":389},"\u2026":{"d":"191,-102r0,102r-50,0r0,-102r50,0xm524,-102r0,102r-50,0r0,-102r50,0xm857,-102r0,102r-50,0r0,-102r50,0","w":1000},"\ue001":{"w":278},"\u040b":{"d":"651,-148r0,148r-43,0r0,-148v0,-153,-24,-241,-174,-241v-80,0,-156,46,-182,59r0,330r-43,0r0,-674r-221,0r0,-38r545,0r0,38r-281,0r0,303v27,-14,102,-55,182,-55v191,0,217,101,217,278","w":704,"k":{"\u0423":26}},"\u045b":{"d":"472,0r-40,0r0,-185v0,-113,-46,-168,-143,-168v-114,0,-186,84,-186,215r0,138r-40,0r0,-477r-63,0r0,-35r63,0r0,-200r39,0r0,200r263,0r0,35r-263,0r0,213r2,0v34,-81,99,-122,189,-122v134,0,179,85,179,208r0,178","w":519,"k":{"\u0443":26}},"\u040c":{"d":"611,-712r-328,296r348,416r-55,0r-324,-387r-148,135r0,252r-43,0r0,-712r43,0r0,409r450,-409r57,0xm401,-909r-132,140r-36,0r117,-140r51,0","w":613},"\u045c":{"d":"338,-736r-132,140r-36,0r117,-140r51,0xm478,0r-51,0r-218,-276r-112,105r0,171r-40,0r0,-512r40,0r0,294r311,-294r55,0r-225,210","w":463},"\u0455":{"d":"429,-363r-41,0v-8,-94,-64,-128,-158,-128v-85,0,-139,38,-139,100v0,79,79,89,163,108v83,19,190,41,190,148v0,90,-81,151,-202,151v-129,0,-209,-69,-209,-188r40,0v0,103,63,152,171,152v95,0,160,-45,160,-113v0,-82,-98,-98,-159,-112v-82,-19,-196,-32,-196,-142v0,-87,70,-139,187,-139v116,0,191,54,193,163","w":481},"\u2013":{"d":"500,-291r0,38r-500,0r0,-38r500,0","w":500},"\u2014":{"d":"1000,-291r0,38r-1000,0r0,-38r1000,0","w":1000},"\u201c":{"d":"259,-692v-23,15,-33,43,-34,94r20,0r0,102r-50,0v3,-100,-17,-190,64,-230r0,34xm134,-692v-23,15,-33,43,-34,94r20,0r0,102r-50,0v3,-100,-17,-190,64,-230r0,34","w":315,"k":{"\u043b":62,"\u0434":62,"\u0459":62,"\u0409":62,"\u0425":-26,"\u0423":-26,"\u0422":-35,"\u041b":62,"\u0416":-26,"\u0414":53,"\u0410":62}},"\u201d":{"d":"118,-712v-3,100,17,190,-64,230r0,-34v23,-15,33,-43,34,-94r-20,0r0,-102r50,0xm243,-712v-3,100,17,190,-64,230r0,-34v23,-15,33,-43,34,-94r-20,0r0,-102r50,0","w":315},"\u2018":{"d":"141,-692v-23,15,-33,43,-34,94r20,0r0,102r-50,0v3,-100,-17,-190,64,-230r0,34","w":204,"k":{"\u043b":62,"\u0434":62,"\u2018":78,"\u0459":62,"\u0409":62,"\u0425":-26,"\u0423":-26,"\u0422":-35,"\u041b":62,"\u0416":-26,"\u0414":53,"\u0410":62}},"\u2019":{"d":"127,-712v-3,100,17,190,-64,230r0,-34v23,-15,33,-43,34,-94r-20,0r0,-102r50,0","w":204,"k":{"\u2019":78,"s":55}},"\u00f7":{"d":"326,-368r-50,0r0,-100r50,0r0,100xm553,-253r-505,0r0,-33r505,0r0,33xm326,-71r-50,0r0,-100r50,0r0,100","w":600},"\u201e":{"d":"118,-102v-3,100,17,190,-64,230r0,-34v23,-15,33,-43,34,-94r-20,0r0,-102r50,0xm243,-102v-3,100,17,190,-64,230r0,-34v23,-15,33,-43,34,-94r-20,0r0,-102r50,0","w":315},"\u040e":{"d":"266,-148r-278,-564r48,0r251,518r238,-518r46,0r-297,636v-38,83,-118,112,-194,66r0,-45v49,47,131,28,158,-31xm419,-881v-8,64,-64,120,-131,120v-74,0,-130,-45,-139,-120r33,0v27,126,186,107,204,0r33,0"},"\u045e":{"d":"358,-712v-8,64,-64,120,-131,120v-74,0,-131,-45,-140,-120r33,0v28,126,186,108,205,0r33,0xm447,-512r-221,565v-30,91,-64,144,-179,129r0,-36v112,19,121,-55,161,-147r-217,-511r45,0r169,401v8,19,10,25,23,64v12,-36,17,-52,24,-69r152,-396r43,0","w":444},"\u040f":{"d":"356,0r0,185r-43,0r0,-185r-250,0r0,-712r43,0r0,674r456,0r0,-674r43,0r0,712r-249,0","w":670},"\u045f":{"d":"280,0r0,161r-40,0r0,-161r-184,0r0,-512r40,0r0,478r327,0r0,-478r40,0r0,512r-183,0","w":519},"\u2116":{"d":"65,0r0,-685r53,0r411,626r2,0r0,-626r42,0r0,685r-50,0r-414,-631r-2,0r0,631r-42,0xm768,-126v-88,0,-136,-62,-136,-145v0,-83,48,-145,136,-145v88,0,136,62,136,145v0,83,-48,145,-136,145xm768,-163v66,0,96,-51,96,-108v0,-57,-30,-108,-96,-108v-66,0,-96,51,-96,108v0,57,30,108,96,108xm910,0r-274,0r0,-43r274,0r0,43","w":950},"\u0401":{"d":"538,-712r0,38r-437,0r0,285r410,0r0,38r-410,0r0,312r441,0r0,39r-484,0r0,-712r480,0xm399,-887r0,103r-43,0r0,-103r43,0xm224,-887r0,103r-42,0r0,-103r42,0","w":560},"\u0451":{"d":"485,-174v-18,112,-97,191,-219,191v-141,0,-233,-105,-233,-268v0,-163,95,-275,233,-275v157,0,228,127,224,278r-415,0v0,118,57,231,192,231v94,0,158,-57,178,-157r40,0xm449,-283v0,-104,-59,-207,-183,-207v-126,0,-180,97,-191,207r374,0xm368,-714r0,103r-43,0r0,-103r43,0xm193,-714r0,103r-42,0r0,-103r42,0","w":519},"\u044f":{"d":"401,0r0,-216r-185,-1r-169,217r-52,0r174,-223v-88,-18,-123,-85,-123,-145v0,-105,81,-144,184,-144r211,0r0,512r-40,0xm401,-477r-165,0v-88,0,-149,34,-149,109v0,144,173,115,314,117r0,-226","w":500},"\u0430":{"d":"499,-36r0,32v-60,16,-106,7,-100,-80r0,-25v-43,84,-102,123,-200,123v-106,0,-169,-53,-169,-143v0,-116,98,-149,196,-157v134,-11,149,-13,163,-35v27,-95,-22,-171,-138,-171v-95,0,-147,47,-155,137r-38,0v7,-111,77,-171,197,-171v66,0,120,19,152,55v30,34,29,76,29,119r0,265v0,30,0,55,37,55v9,0,14,-1,26,-4xm397,-290v-90,68,-324,-6,-324,157v0,69,51,112,133,112v110,0,191,-76,191,-179r0,-90","w":500},"\u0431":{"d":"273,17v-177,0,-232,-134,-231,-306v0,-144,29,-375,210,-395r98,-11v38,-4,74,-7,79,-34r38,0v1,65,-129,71,-209,80v-128,14,-175,161,-181,271r3,0v36,-76,106,-131,203,-131v136,0,221,118,221,262v0,144,-84,264,-231,264xm466,-247v0,-122,-68,-229,-193,-229v-125,0,-193,107,-193,229v0,122,68,231,193,231v125,0,193,-109,193,-231","w":537,"k":{"\u0442":18,"\u043b":42,"\u0434":18}},"\u0432":{"d":"272,0r-219,0r0,-512v166,8,389,-43,397,126v3,62,-45,102,-109,114v76,7,122,56,122,122v0,102,-88,150,-191,150xm410,-386v0,-120,-189,-87,-315,-91r0,189r150,0v61,0,165,-16,165,-98xm422,-150v0,-133,-192,-98,-327,-103r0,218r171,0v88,0,156,-40,156,-115","w":500,"k":{"\u043b":32}},"\u0433":{"d":"100,-477r0,477r-40,0r0,-512r340,0r0,35r-300,0","w":400,"k":{"\u0441":26,"\u043e":26,"\u043b":88,"\u0435":26,"\u0434":48,"\u0430":26,"\/":62,".":145,"-":97,",":145}},"\u0434":{"d":"485,161r0,-161r-438,0r0,161r-40,0r0,-196r60,0v57,-121,75,-312,72,-477r316,0r0,477r70,0r0,196r-40,0xm415,-477r-236,0v3,152,-20,334,-70,442r306,0r0,-442","w":537},"\u0435":{"d":"485,-174v-18,112,-97,191,-219,191v-141,0,-233,-105,-233,-268v0,-163,95,-275,233,-275v157,0,228,127,224,278r-415,0v0,118,57,231,192,231v94,0,158,-57,178,-157r40,0xm449,-283v0,-104,-59,-207,-183,-207v-126,0,-180,97,-191,207r374,0","w":519,"k":{"\u0442":18,"\u043b":32,"\u0434":32,"\u0459":32}},"\u0436":{"d":"251,-270r-210,270r-52,0r234,-299r-210,-213r55,0r273,282r0,-282r40,0r0,282r273,-282r55,0r-210,213r234,299r-52,0r-210,-270r-90,92r0,178r-40,0r0,-178","w":722},"\u0437":{"d":"424,-392v0,62,-45,107,-108,118v75,7,121,62,121,130v0,103,-96,159,-199,159v-129,0,-209,-69,-209,-188r40,0v0,103,61,152,169,152v78,0,158,-47,158,-123v0,-90,-99,-115,-211,-109r0,-35v96,4,200,-12,200,-104v0,-67,-66,-99,-141,-99v-94,0,-153,34,-161,128r-41,0v2,-109,87,-163,203,-163v96,0,179,39,179,134","w":473,"k":{"\u043b":32}},"\u0438":{"d":"423,0r-1,-460r-317,460r-49,0r0,-512r40,0r1,462r316,-462r50,0r0,512r-40,0","w":519},"\u0439":{"d":"394,-712v-8,64,-64,120,-131,120v-74,0,-131,-45,-140,-120r33,0v28,126,186,108,205,0r33,0xm423,0r-1,-460r-317,460r-49,0r0,-512r40,0r1,462r316,-462r50,0r0,512r-40,0","w":519},"\u043a":{"d":"478,0r-51,0r-218,-276r-112,105r0,171r-40,0r0,-512r40,0r0,294r311,-294r55,0r-225,210","w":463},"\u043b":{"d":"442,0r0,-477r-239,0r-10,274v-10,177,-57,238,-176,203r0,-36v100,41,133,-33,138,-171r11,-305r316,0r0,512r-40,0","w":537},"\u043c":{"d":"96,-476r0,476r-40,0r0,-512r64,0r196,465r195,-465r64,0r0,512r-40,0r0,-476r-2,0r-196,476r-42,0r-197,-476r-2,0","w":630},"\u043d":{"d":"423,0r0,-255r-327,0r0,255r-40,0r0,-512r40,0r0,223r327,0r0,-223r40,0r0,512r-40,0","w":519},"\u043e":{"d":"270,-527v143,0,236,107,236,274v0,164,-93,268,-237,268v-145,0,-238,-106,-238,-271v0,-163,95,-271,239,-271xm269,-492v-118,0,-197,95,-197,236v0,144,77,236,198,236v118,0,194,-92,194,-233v0,-145,-77,-239,-195,-239","w":537,"k":{"\u0442":18,"\u043b":32,"\u0434":32,"\u0459":32}},"\u043f":{"d":"423,-479r-327,0r0,479r-40,0r0,-512r407,0r0,512r-40,0r0,-479","w":519},"\u0440":{"d":"100,-512r0,122v33,-90,97,-136,191,-136v139,0,229,107,229,273v0,163,-91,271,-228,271v-95,0,-164,-48,-190,-134r0,301r-40,0r0,-697r38,0xm289,-492v-119,0,-189,89,-189,240v0,119,55,236,190,236v114,0,188,-94,188,-237v0,-147,-73,-239,-189,-239","k":{"\u0442":18,"\u043b":42,"\u0434":32}},"\u0441":{"d":"489,-180v-16,123,-96,195,-218,195v-156,0,-235,-122,-235,-269v0,-166,94,-273,240,-273v118,0,196,64,209,172r-41,0v-11,-83,-74,-138,-167,-138v-122,0,-200,93,-200,237v0,143,77,237,193,237v98,0,166,-61,179,-161r40,0","w":519,"k":{"\u0442":18,"\u043b":32,"\u0434":32}},"\u0442":{"d":"242,-477r0,477r-40,0r0,-477r-194,0r0,-35r428,0r0,35r-194,0","w":444,"k":{"\u044d":18,"\u0444":18,"\u0441":18,"\u043e":18,"\u043b":60,"\u0435":18,"\u0430":18,".":106,"-":62,",":106}},"\u0443":{"d":"447,-512r-221,565v-30,91,-64,144,-179,129r0,-36v112,19,121,-55,161,-147r-217,-511r45,0r169,401v8,19,10,25,23,64v12,-36,17,-52,24,-69r152,-396r43,0","w":444,"k":{"\u043b":51,"\u0434":18,"\u2019":-35,"\u201d":-35,"\u0459":41,".":74,",":74}},"\u0444":{"d":"730,-257v0,146,-67,269,-197,269v-58,0,-104,-34,-130,-75r0,248r-40,0r0,-248v-26,41,-72,75,-130,75v-130,0,-197,-123,-197,-269v0,-146,63,-269,194,-269v58,0,107,37,133,78r0,-264r40,0r0,264v26,-41,75,-78,133,-78v131,0,194,123,194,269xm688,-257v0,-123,-42,-235,-162,-235v-59,0,-123,61,-123,133r0,207v0,72,65,129,124,129v109,0,161,-111,161,-234xm363,-152r0,-207v0,-72,-64,-133,-123,-133v-120,0,-162,112,-162,235v0,123,52,234,161,234v59,0,124,-57,124,-129","w":766,"k":{"\u0442":18,"\u043b":42}},"\u0445":{"d":"432,-512r-185,242r205,270r-52,0r-179,-240r-180,240r-48,0r203,-268r-187,-244r52,0r160,214r163,-214r48,0","w":444},"\u0446":{"d":"487,161r0,-161r-432,0r0,-512r40,0r0,477r327,0r0,-477r40,0r0,477r65,0r0,196r-40,0","w":537},"\u0447":{"d":"392,0r0,-249v-20,8,-112,39,-174,39v-113,0,-164,-47,-164,-168r0,-134r40,0r0,141v0,98,48,125,125,125v61,0,147,-29,173,-41r0,-225r40,0r0,512r-40,0","w":489},"\u0448":{"d":"55,0r0,-512r40,0r0,477r267,0r0,-477r40,0r0,477r267,0r0,-477r40,0r0,512r-654,0","w":768},"\u0449":{"d":"734,161r0,-161r-680,0r0,-512r40,0r0,477r268,0r0,-477r40,0r0,477r267,0r0,-477r40,0r0,477r65,0r0,196r-40,0","w":789},"\u044a":{"d":"583,-160v0,105,-72,160,-176,160r-230,0r0,-477r-178,0r0,-35r219,0r0,204r173,0v154,0,192,74,192,148xm541,-160v0,-143,-183,-109,-323,-113r0,238r183,0v88,0,140,-50,140,-125","w":611},"\u044b":{"d":"535,0r0,-512r40,0r0,512r-40,0xm265,0r-211,0r0,-512r41,0r0,204r153,0v154,0,193,74,193,148v0,105,-73,160,-176,160xm399,-160v0,-136,-168,-111,-304,-113r0,238r164,0v88,0,140,-50,140,-125","w":630},"\u044c":{"d":"285,0r-231,0r0,-512r41,0r0,204r173,0v154,0,193,74,193,148v0,105,-73,160,-176,160xm419,-160v0,-143,-183,-109,-324,-113r0,238r184,0v88,0,140,-50,140,-125","w":489,"k":{"\u0447":36,"\u0442":73,"\u2019":62,"\u201d":62}},"\u044d":{"d":"483,-254v0,147,-79,269,-235,269v-119,0,-198,-69,-217,-186r40,0v16,95,83,152,178,152v115,0,191,-92,193,-233r-275,0r0,-34r274,0v-10,-127,-86,-207,-199,-207v-90,0,-152,51,-166,130r-41,0v16,-103,93,-164,208,-164v146,0,240,107,240,273","w":519,"k":{"\u0442":18,"\u043b":42,"\u0434":32}},"\u044e":{"d":"462,-527v143,0,236,107,236,274v0,164,-93,268,-237,268v-145,0,-237,-105,-238,-270r-127,0r0,255r-40,0r0,-512r40,0r0,223r128,0v12,-145,104,-238,238,-238xm461,-492v-118,0,-197,95,-197,236v0,144,77,236,198,236v118,0,194,-92,194,-233v0,-145,-77,-239,-195,-239","w":730,"k":{"\u0442":18,"\u043b":42,"\u0434":32}},"\u00a4":{"d":"58,-160r63,-63v-64,-75,-65,-193,0,-268r-64,-64r24,-23r63,64v74,-65,194,-65,268,0r64,-64r23,24r-63,63v63,76,66,193,-1,268r64,64r-23,23r-64,-64v-73,66,-194,66,-267,0r-64,63xm278,-528v-95,0,-171,77,-171,171v0,95,78,171,171,171v96,0,172,-77,172,-171v0,-94,-76,-171,-172,-171"},"\ue000":{"d":"283,-290r0,39r-214,0r0,-39r214,0","w":352},"\u201a":{"d":"125,-102v-3,100,17,190,-64,230r0,-34v23,-15,33,-43,34,-94r-20,0r0,-102r50,0","w":204},"\u2021":{"d":"502,-515r0,36r-205,0r0,391r205,0r0,36r-205,0r0,197r-38,0r0,-197r-206,0r0,-36r206,0r0,-391r-206,0r0,-36r206,0r0,-197r38,0r0,197r205,0"},"\u2030":{"d":"610,-725r-469,756r-35,-1r469,-755r35,0xm526,-327v94,0,152,63,152,165v0,109,-56,172,-150,172v-97,0,-152,-60,-152,-167v0,-107,56,-170,150,-170xm884,-327v94,0,151,62,151,166v0,106,-58,171,-151,171v-96,0,-152,-61,-152,-167v0,-107,56,-170,152,-170xm195,-706v95,0,152,63,152,168v0,104,-60,170,-153,170v-95,0,-150,-62,-150,-170v0,-105,57,-168,151,-168xm526,-297v-75,0,-114,49,-114,142v0,88,41,136,115,136v73,0,115,-51,115,-142v0,-85,-43,-136,-116,-136xm884,-298v-73,0,-117,52,-117,140v0,88,43,139,116,139v73,0,115,-52,115,-142v0,-87,-42,-137,-114,-137xm194,-676v-72,0,-115,53,-115,142v0,86,42,136,115,136v73,0,116,-52,116,-139v0,-88,-42,-139,-116,-139","w":1074},"\u2039":{"d":"179,-419r0,50r-87,102r87,99r0,49r-115,-129r0,-40","w":259},"\u203a":{"d":"81,-419r115,129r0,40r-115,131r0,-49r88,-103r-88,-99r0,-49","w":259},"\u00a6":{"d":"92,89r0,-250r38,0r0,250r-38,0xm92,-411r0,-250r38,0r0,250r-38,0","w":222},"\u00b7":{"d":"156,-355r0,102r-50,0r0,-102r50,0","w":278},"\u00a0":{"w":278}}});
/*!
 * The following copyright notice may not be removed under any circumstances.
 * 
 * Copyright:
 * Copyrighted (c) 1981, 1997 by and the property of Linotype-Hell AG and/or its
 * subsidiaries. All Rights Reserved. All Cyrillic characters designed by
 * DoubleAlex. Helvetica is a registered Trademark of Linotype-Hell AG and/or its
 * subsidiaries.
 * 
 * Trademark:
 * Please refer to the Copyright section for the font trademark attribution
 * notices.
 * 
 * Manufacturer:
 * by and the property of Linotype-Hell AG and/or its subsidiaries
 */
Cufon.registerFont({"w":556,"face":{"font-family":"HelveticaNeueCyr","font-weight":550,"font-stretch":"normal","units-per-em":"1000","panose-1":"2 0 6 3 5 0 0 2 0 4","ascent":"800","descent":"-200","x-height":"16","bbox":"-36 -900 1075 214","underline-thickness":"50","underline-position":"-50","stemh":"90","stemv":"114","unicode-range":"U+0020-U+E001"},"glyphs":{" ":{"w":278},"!":{"d":"200,-712r0,204r-32,311r-59,0r-31,-310r0,-205r122,0xm204,-127r0,127r-130,0r0,-127r130,0","w":278},"\"":{"d":"168,-405r-65,0r-18,-291r101,0xm342,-405r-66,0r-17,-291r100,0","w":444},"#":{"d":"163,0r-94,0r36,-195r-90,0r0,-80r104,0r27,-145r-89,0r0,-80r104,0r37,-196r94,0r-36,196r110,0r36,-196r94,0r-36,196r89,0r0,80r-104,0r-27,145r89,0r0,80r-104,0r-36,195r-94,0r36,-195r-110,0xm324,-275r27,-145r-110,0r-27,145r110,0"},"$":{"d":"301,-788r0,72v139,5,222,75,217,200r-108,0v2,-78,-40,-107,-109,-114r0,220v121,20,237,70,237,212v0,125,-96,212,-237,212r0,86r-50,0r0,-86v-138,0,-242,-78,-238,-232r114,0v-7,88,40,138,124,145r0,-244v-111,-16,-221,-69,-221,-197v0,-134,102,-191,221,-202r0,-72r50,0xm251,-421r0,-208v-70,5,-113,44,-113,104v0,70,55,90,113,104xm301,-306r0,234v74,-2,124,-50,124,-120v0,-60,-40,-97,-124,-114"},"%":{"d":"731,-725r-394,756r-78,0r396,-756r76,0xm253,-708v105,0,161,66,161,190v0,133,-57,204,-163,204v-106,0,-164,-69,-164,-198v0,-125,60,-196,166,-196xm251,-643v-51,0,-76,44,-76,136v0,88,24,129,75,129v71,0,76,-86,76,-139v0,-52,-7,-126,-75,-126xm757,-380v105,0,161,66,161,190v0,133,-57,204,-163,204v-106,0,-164,-69,-164,-198v0,-125,60,-196,166,-196xm755,-315v-51,0,-76,44,-76,136v0,88,24,129,75,129v71,0,76,-86,76,-139v0,-52,-7,-126,-75,-126","w":1000},"&":{"d":"580,-340v-5,58,-24,127,-58,175r140,165r-140,0r-66,-80v-58,69,-130,95,-200,95v-122,0,-223,-75,-223,-206v0,-99,74,-171,162,-212v-50,-61,-71,-107,-71,-157v0,-92,73,-158,176,-158v100,0,172,66,172,158v0,85,-55,144,-126,182r109,135v14,-30,21,-64,25,-97r100,0xm289,-447v59,-35,83,-68,83,-110v0,-44,-30,-76,-72,-76v-42,0,-74,30,-74,70v0,41,38,85,63,116xm254,-330v-52,30,-109,68,-109,136v0,63,52,114,117,114v59,0,100,-33,133,-77","w":648},"'":{"d":"170,-405r-62,0r-19,-291r100,0","w":278},"(":{"d":"285,-717v-76,143,-121,273,-121,458v0,161,44,310,122,450r-92,0v-86,-141,-144,-266,-144,-448v0,-154,46,-320,144,-460r91,0","w":278},")":{"d":"227,-257v0,182,-58,307,-144,448r-92,0v78,-140,122,-289,122,-450v0,-185,-45,-315,-121,-458r91,0v98,140,144,306,144,460","w":278},"*":{"d":"352,-582r-113,38r69,94r-53,40r-71,-99r-69,99r-55,-40r69,-94r-111,-38r22,-64r111,42r-1,-118r69,0r-2,118r111,-42","w":370},"+":{"d":"249,0r0,-210r-207,0r0,-95r207,0r0,-210r102,0r0,210r208,0r0,95r-208,0r0,210r-102,0","w":600},",":{"d":"207,-135v3,151,8,261,-136,292r0,-60v43,-13,63,-44,65,-97r-65,0r0,-135r136,0","w":278},"-":{"d":"341,-328r0,106r-293,0r0,-106r293,0","w":389,"k":{"\u0442":56}},".":{"d":"207,-135r0,135r-136,0r0,-135r136,0","w":278},"\/":{"d":"370,-729r-287,746r-101,0r289,-746r99,0","w":352,"k":{"\u0447":39,"\u0441":77,"\u043e":77,"\u043c":39,"\u043b":48,"\u043a":29,"\u0437":77,"\u0434":48,"\u0431":58,"\u044f":58,"\u0423":-29}},"0":{"d":"276,-706v163,0,244,121,244,363v0,234,-83,357,-240,357v-161,0,-244,-121,-244,-359v0,-236,83,-361,240,-361xm277,-610v-123,0,-126,160,-126,272v0,180,39,257,128,257v125,0,126,-174,126,-262v0,-91,1,-267,-128,-267"},"1":{"d":"377,-704r0,704r-122,0r0,-484r-174,0r0,-84v75,0,184,-14,204,-136r92,0"},"2":{"d":"502,-497v2,217,-264,240,-342,396r341,0r0,101r-478,0v5,-160,90,-223,209,-303v70,-47,154,-91,154,-188v0,-73,-43,-118,-113,-118v-103,0,-119,84,-121,166r-111,0v-6,-163,85,-263,235,-264v136,0,226,83,226,210"},"3":{"d":"44,-475v4,-144,90,-232,228,-232v129,0,217,76,217,188v0,68,-38,123,-98,143v79,20,127,81,127,165v0,134,-102,226,-248,226v-151,0,-249,-95,-243,-245r110,0v3,98,48,147,136,147v77,0,126,-48,126,-125v0,-99,-81,-124,-176,-116r0,-86v77,1,154,-7,154,-101v0,-61,-42,-102,-107,-102v-73,0,-114,48,-117,138r-109,0"},"4":{"d":"522,-262r0,96r-89,0r0,166r-110,0r-1,-166r-297,0r0,-113r300,-427r108,0r0,444r89,0xm324,-262r0,-303r-205,303r205,0"},"5":{"d":"477,-696r0,99r-279,0r-32,180v36,-38,80,-50,132,-50v130,0,217,92,217,229v0,148,-103,251,-250,251v-138,0,-231,-83,-237,-212r113,0v6,72,56,118,127,118v83,0,130,-55,130,-151v0,-93,-49,-147,-132,-147v-52,0,-87,18,-117,63r-100,-3r67,-377r361,0"},"6":{"d":"507,-522r-110,0v-12,-64,-47,-96,-106,-96v-123,0,-136,160,-144,242v37,-55,89,-86,160,-86v129,0,216,93,216,231v0,143,-98,245,-236,245v-161,0,-251,-125,-251,-351v0,-233,97,-371,260,-371v119,0,198,69,211,186xm284,-371v-74,0,-122,55,-122,141v0,90,50,149,125,149v73,0,122,-58,122,-146v0,-87,-49,-144,-125,-144"},"7":{"d":"514,-696r0,96v-146,146,-247,391,-255,600r-125,0v5,-190,127,-460,267,-591r-364,0r0,-105r477,0"},"8":{"d":"160,-377v-63,-22,-100,-76,-100,-146v0,-110,91,-186,221,-186v126,0,214,76,214,183v0,70,-35,122,-99,149v81,28,128,76,128,169v0,132,-99,220,-247,220v-146,0,-245,-86,-245,-214v0,-87,47,-150,128,-175xm280,-617v-69,0,-113,39,-113,101v0,61,45,102,112,102v67,0,110,-39,110,-102v0,-62,-43,-101,-109,-101xm277,-332v-77,0,-130,50,-130,124v0,80,52,130,134,130v80,0,128,-47,128,-127v0,-78,-52,-127,-132,-127"},"9":{"d":"44,-174r110,0v5,56,45,97,110,97v116,0,134,-157,138,-245v-38,59,-85,89,-156,89v-126,0,-216,-96,-216,-230v0,-143,100,-246,238,-246v198,0,248,186,248,345v0,169,-55,378,-258,378v-118,0,-208,-79,-214,-188xm264,-613v-72,0,-119,59,-119,147v0,86,47,141,121,141v73,0,123,-57,123,-141v0,-89,-49,-147,-125,-147"},":":{"d":"207,-135r0,135r-136,0r0,-135r136,0xm207,-511r0,135r-136,0r0,-135r136,0","w":278},";":{"d":"207,-511r0,135r-136,0r0,-135r136,0xm207,-135v3,151,8,261,-136,292r0,-60v43,-13,63,-44,65,-97r-65,0r0,-135r136,0","w":278},"<":{"d":"42,-208r0,-100r517,-199r0,106r-388,143r388,143r0,108","w":600},"=":{"d":"42,-317r0,-96r517,0r0,96r-517,0xm42,-102r0,-96r517,0r0,96r-517,0","w":600},">":{"d":"559,-208r-517,201r0,-108r388,-143r-388,-143r0,-106r517,199r0,100","w":600},"?":{"d":"208,0r0,-127r129,0r0,127r-129,0xm219,-197v0,-79,9,-129,69,-185v46,-42,96,-78,96,-146v0,-58,-43,-100,-104,-100v-88,0,-119,65,-121,142r-115,0v6,-143,82,-240,238,-240v135,0,224,79,224,198v0,92,-46,131,-109,185v-65,56,-70,59,-70,146r-108,0"},"@":{"d":"695,-129r28,38v-104,77,-194,108,-306,108v-212,0,-388,-142,-388,-363v0,-217,176,-383,403,-383v199,0,339,123,339,299v0,140,-97,263,-208,263v-57,0,-94,-39,-80,-95v-29,55,-72,95,-139,95v-81,0,-136,-62,-136,-153v0,-130,94,-242,201,-242v55,0,93,20,114,71r15,-55r82,0v-24,90,-77,184,-77,280v0,25,16,40,42,40v67,0,132,-103,132,-209v0,-145,-116,-245,-284,-245v-200,0,-350,144,-350,336v0,182,140,312,337,312v99,0,184,-30,275,-97xm493,-436v0,-39,-27,-67,-64,-67v-79,0,-126,124,-126,188v0,55,25,89,66,89v79,0,124,-149,124,-210","w":800},"A":{"d":"400,-713r275,713r-134,0r-68,-189r-282,0r-70,189r-129,0r275,-713r133,0xm440,-283r-106,-300r-111,300r217,0","w":667,"k":{"\u2019":74,"y":18,"w":18,"v":18,"Y":74,"W":25,"V":62,"T":92}},"B":{"d":"74,-712r325,0v154,0,231,73,231,179v0,69,-42,126,-102,150v81,20,134,81,134,173v0,126,-92,210,-225,210r-363,0r0,-712xm196,-611r0,196v126,-5,310,31,310,-98v0,-89,-65,-98,-136,-98r-174,0xm196,-325r0,223v143,-9,341,44,341,-111v0,-162,-197,-99,-341,-112","w":704},"C":{"d":"685,-271v-13,173,-132,288,-310,288v-201,0,-333,-148,-333,-373v0,-202,123,-372,339,-372v142,0,274,78,298,243r-124,0v-17,-86,-84,-137,-176,-137v-150,0,-211,135,-211,266v0,132,58,267,210,267v116,0,169,-77,182,-182r125,0","w":722},"D":{"d":"75,-712v199,10,384,-37,504,73v136,124,146,417,5,560v-59,59,-119,79,-231,79r-278,0r0,-712xm199,-606r0,501r147,0v167,0,213,-111,213,-257v0,-146,-65,-244,-221,-244r-139,0","w":722},"E":{"d":"587,-712r0,105r-389,0r0,189r361,0r0,101r-361,0r0,210r395,0r0,107r-519,0r0,-712r513,0","w":630},"F":{"d":"568,-712r0,106r-367,0r0,194r322,0r0,101r-322,0r0,311r-126,0r0,-712r493,0","w":593,"k":{"A":55,".":129,",":129}},"G":{"d":"700,-381r0,381r-80,0r-19,-85v-58,70,-127,102,-222,102v-200,0,-337,-149,-337,-368v0,-207,128,-376,348,-376v148,0,285,87,301,242r-121,0v-15,-85,-84,-137,-181,-137v-137,0,-221,103,-221,269v0,168,84,269,225,269v130,0,194,-94,194,-201r-192,0r0,-96r305,0","w":759},"H":{"d":"649,-712r0,712r-125,0r0,-320r-326,0r0,320r-125,0r0,-712r125,0r0,283r326,0r0,-283r125,0","w":722},"I":{"d":"202,-712r0,712r-126,0r0,-712r126,0","w":278},"J":{"d":"470,-712r0,501v0,150,-75,228,-219,228v-177,0,-231,-100,-226,-267r119,0v-2,92,4,165,103,165v94,0,98,-68,98,-143r0,-484r125,0","w":537},"K":{"d":"671,-712r-285,284r303,428r-155,0r-234,-341r-102,102r0,239r-124,0r0,-712r124,0r0,323r315,-323r158,0","w":685},"L":{"d":"562,-108r0,108r-488,0r0,-712r126,0r0,604r362,0","w":574,"k":{"\u2019":74,"y":37,"Y":111,"W":55,"V":92,"T":92}},"M":{"d":"815,-712r0,712r-119,0r0,-549r-198,549r-102,0r-203,-549r0,549r-118,0r0,-712r175,0r199,557r192,-557r174,0","w":889},"N":{"d":"652,-712r0,712r-129,0r-332,-524r0,524r-118,0r0,-712r131,0r328,525r0,-525r120,0","w":722},"O":{"d":"382,-729v201,0,340,152,340,373v0,222,-139,373,-342,373v-204,0,-342,-151,-342,-373v0,-209,126,-373,344,-373xm380,-624v-131,0,-216,105,-216,266v0,166,84,270,218,270v130,0,214,-106,214,-269v0,-163,-84,-267,-216,-267","w":760},"P":{"d":"77,-712r309,0v147,0,248,68,248,217v0,135,-87,221,-231,221r-201,0r0,274r-125,0r0,-712xm202,-608r0,233v139,-4,313,32,310,-117v-3,-151,-171,-110,-310,-116","w":667,"k":{"A":74,".":169,",":169}},"Q":{"d":"713,-2r-61,68r-106,-90v-43,27,-105,41,-169,41v-201,0,-339,-150,-339,-371v0,-220,141,-373,343,-373v200,0,340,152,340,370v0,114,-37,214,-101,275xm532,-159v48,-61,64,-119,64,-197v0,-162,-85,-266,-217,-266v-130,0,-215,105,-215,266v0,196,128,316,297,254r-73,-62r60,-68","w":760},"R":{"d":"74,-712r337,0v128,0,240,51,240,198v0,86,-43,149,-118,175v91,20,100,89,106,162v7,85,9,145,38,177r-134,0v-18,-27,-19,-76,-23,-142v-7,-112,-35,-152,-156,-152r-166,0r0,294r-124,0r0,-712xm198,-610r0,223v143,-10,329,45,329,-114v0,-157,-189,-97,-329,-109","w":704,"k":{"Y":37,"W":18,"V":18,"T":18}},"S":{"d":"587,-502r-119,0v-8,-89,-67,-125,-155,-125v-85,0,-136,37,-136,99v0,68,44,72,181,108v121,31,257,60,257,213v0,161,-143,223,-283,223v-169,0,-300,-80,-300,-252r123,0v0,110,83,153,184,153v96,0,153,-42,153,-112v0,-74,-61,-87,-166,-114v-151,-39,-268,-64,-268,-209v0,-127,103,-208,263,-208v145,0,260,65,266,224","w":648},"T":{"d":"586,-712r0,108r-227,0r0,604r-125,0r0,-604r-227,0r0,-108r579,0","w":593,"k":{"y":111,"w":111,"u":92,"s":111,"r":92,"o":111,"e":111,"c":111,"a":100,"A":92,";":83,":":83,".":111,"-":129,",":111}},"U":{"d":"653,-712r0,436v0,196,-98,290,-290,290v-202,0,-294,-95,-294,-292r0,-434r125,0r0,459v0,110,59,164,171,164v142,0,163,-82,163,-203r0,-420r125,0","w":722},"V":{"d":"-5,-712r131,0r180,563r184,-563r127,0r-244,712r-139,0","w":611,"k":{"y":18,"u":37,"r":37,"o":55,"i":-10,"e":55,"a":55,"A":55,";":46,":":46,".":129,"-":55,",":129}},"W":{"d":"8,-712r127,0r130,542r146,-542r127,0r141,542r134,-542r127,0r-197,712r-127,0r-144,-547r-147,547r-129,0","w":944,"k":{"u":18,"r":18,"o":18,"e":18,"a":37,"A":25,";":18,":":18,".":74,"-":28,",":74}},"X":{"d":"-6,0r254,-369r-236,-343r149,0r162,252r169,-252r140,0r-236,343r253,369r-152,0r-178,-272r-181,272r-144,0","w":648},"Y":{"d":"655,-712r-268,429r0,283r-123,0r0,-283r-269,-429r144,0r189,315r187,-315r140,0","w":648,"k":{"v":55,"u":86,"q":104,"p":86,"o":92,"i":9,"e":92,"a":92,"A":74,";":92,":":92,".":111,"-":111,",":111}},"Z":{"d":"592,-712r0,99r-415,505r427,0r0,108r-585,0r0,-103r412,-501r-382,0r0,-108r543,0","w":630},"[":{"d":"295,-720r0,89r-118,0r0,722r118,0r0,89r-224,0r0,-900r224,0","w":296},"\\":{"d":"259,17r-256,-746r92,0r256,746r-92,0","w":352},"]":{"d":"1,-720r224,0r0,900r-224,0r0,-89r118,0r0,-722r-118,0r0,-89","w":296},"^":{"d":"80,-271r175,-425r90,0r175,425r-103,0r-119,-298r-115,298r-103,0","w":600},"_":{"d":"0,125r0,-50r500,0r0,50r-500,0","w":500},"`":{"d":"98,-727r91,143r-83,0r-142,-143r134,0","w":241},"a":{"d":"55,-357v13,-127,100,-175,226,-175v122,0,212,45,212,156r0,262v-1,43,18,40,53,36r0,80v-76,20,-141,20,-158,-51v-47,45,-113,62,-181,62v-107,0,-174,-59,-174,-154v0,-137,128,-150,231,-163v79,-10,102,-15,113,-30v23,-63,-10,-115,-99,-115v-74,0,-106,25,-115,92r-108,0xm383,-259v-80,48,-224,-3,-233,114v-7,100,164,90,210,36v34,-40,19,-90,23,-150"},"b":{"d":"174,-712r0,263v39,-55,103,-80,169,-80v138,0,228,106,228,267v0,166,-93,276,-234,276v-70,0,-132,-24,-169,-84r0,70r-107,0r0,-712r113,0xm314,-438v-90,-1,-144,68,-144,181v0,111,55,179,144,179v86,0,142,-72,142,-182v0,-109,-55,-178,-142,-178","w":611},"c":{"d":"528,-195v-16,127,-108,208,-237,208v-157,0,-254,-110,-254,-266v0,-170,100,-279,257,-279v132,0,217,70,230,189r-113,0v-13,-65,-54,-101,-116,-101v-88,0,-142,70,-142,185v0,114,51,182,138,182v68,0,113,-42,125,-118r112,0"},"d":{"d":"549,-712r0,712r-107,0r0,-71v-32,56,-88,85,-165,85v-146,0,-238,-106,-238,-273v0,-166,91,-271,234,-271v73,0,128,28,164,81r0,-263r112,0xm294,-438v-86,0,-140,67,-140,177v0,113,55,183,144,183v89,0,142,-67,142,-181v0,-113,-54,-179,-146,-179","w":611},"e":{"d":"522,-161v-26,113,-118,178,-234,178v-159,0,-254,-115,-254,-269v0,-162,105,-279,250,-279v155,0,249,116,245,301r-381,0v3,104,54,163,142,163v63,0,100,-28,123,-94r109,0xm415,-306v-7,-87,-57,-140,-132,-140v-75,0,-122,49,-133,140r265,0"},"f":{"d":"316,-713r0,88v-59,-6,-117,-12,-109,59r0,50r98,0r0,83r-97,0r0,433r-113,0r0,-433r-85,0r0,-83r85,0v-6,-126,24,-202,153,-200v23,0,45,1,68,3","w":315,"k":{"\u2019":-18,"f":18}},"g":{"d":"533,-516r0,456v0,170,-62,261,-248,261v-140,0,-218,-52,-231,-157r114,0v11,53,48,77,120,77v118,0,145,-84,136,-213v-39,61,-90,87,-164,87v-137,0,-224,-100,-224,-257v0,-162,91,-268,230,-268v75,0,120,28,161,86r0,-72r106,0xm286,-438v-86,0,-137,65,-137,174v0,104,54,170,137,170v85,0,138,-68,138,-176v0,-105,-52,-168,-138,-168","w":593},"h":{"d":"174,-712r0,267v37,-55,92,-84,163,-84v110,0,178,60,178,179r0,350r-115,0r0,-313v0,-69,-15,-121,-100,-121v-93,0,-126,70,-126,157r0,277r-113,0r0,-712r113,0","w":574},"i":{"d":"177,-715r0,112r-114,0r0,-112r114,0xm177,-516r0,516r-114,0r0,-516r114,0","w":241},"j":{"d":"181,-516r0,543v7,136,-64,185,-200,168r0,-93v46,4,86,8,86,-45r0,-573r114,0xm181,-716r0,113r-114,0r0,-113r114,0","w":241},"k":{"d":"518,-516r-198,189r216,327r-139,0r-157,-249r-68,64r0,185r-111,0r0,-712r111,0r0,401r206,-205r140,0","w":537},"l":{"d":"177,-712r0,712r-113,0r0,-712r113,0","w":241},"m":{"d":"169,-516r0,73v41,-56,90,-87,162,-87v67,0,120,31,144,88v40,-57,95,-88,167,-88v94,0,169,58,169,164r0,366r-114,0r0,-317v0,-63,-13,-117,-92,-117v-75,0,-113,50,-113,131r0,303r-114,0r0,-323v0,-62,-9,-111,-85,-111v-80,0,-118,57,-118,137r0,297r-114,0r0,-516r108,0","w":870},"n":{"d":"169,-516r0,76v43,-62,94,-90,171,-90v119,0,175,69,175,186r0,344r-114,0r0,-300v0,-71,-9,-135,-100,-135v-69,0,-126,38,-126,157r0,278r-114,0r0,-516r108,0","w":574},"o":{"d":"299,-531v158,0,258,106,258,273v0,168,-100,274,-258,274v-161,0,-263,-106,-263,-274v0,-166,103,-273,263,-273xm297,-441v-90,0,-146,70,-146,183v0,116,55,185,147,185v90,0,144,-70,144,-186v0,-113,-55,-182,-145,-182","w":593},"p":{"d":"169,-516r0,69v36,-58,101,-84,168,-84v143,0,235,108,235,275v0,163,-90,269,-229,269v-70,0,-127,-24,-168,-81r0,259r-113,0r0,-707r107,0xm314,-439v-90,0,-143,68,-143,181v0,112,54,180,145,180v87,0,141,-68,141,-178v0,-112,-55,-183,-143,-183","w":611},"q":{"d":"549,-516r0,707r-112,0r0,-260v-43,58,-95,82,-169,82v-140,0,-229,-104,-229,-269v0,-169,91,-275,236,-275v71,0,129,23,167,83r0,-68r107,0xm294,-439v-85,0,-140,71,-140,184v0,110,54,177,142,177v90,0,144,-68,144,-183v0,-112,-54,-178,-146,-178","w":611},"r":{"d":"352,-526r0,109v-136,-22,-189,68,-189,190r0,227r-113,0r0,-516r107,0r0,103v37,-76,98,-124,195,-113","w":352,"k":{"\u2260":55,"q":18,"o":18,"n":-18,"e":18,"d":18,"c":18,".":92,",":92}},"s":{"d":"469,-366r-109,0v-8,-63,-51,-82,-112,-82v-58,0,-92,22,-92,60v0,52,49,56,132,75v90,21,200,44,200,158v0,104,-87,170,-225,170v-146,0,-226,-62,-232,-180r109,0v6,68,54,97,125,97v67,0,111,-29,111,-75v0,-52,-58,-61,-123,-77v-118,-29,-211,-44,-211,-155v0,-98,79,-156,211,-156v118,0,216,48,216,165","w":519},"t":{"d":"312,-516r0,83r-104,0r0,272v0,49,-1,74,59,74v16,0,28,0,45,-2r0,90v-34,4,-48,4,-77,4v-150,0,-141,-75,-141,-192r0,-246r-86,0r0,-83r86,0r0,-155r114,0r0,155r104,0","w":333},"u":{"d":"513,-516r0,516r-107,0r0,-77v-44,62,-98,91,-170,91v-114,0,-176,-67,-176,-188r0,-342r114,0r0,295v0,75,4,139,101,139v91,0,124,-76,124,-161r0,-273r114,0","w":574},"v":{"d":"8,-516r124,0r132,397r127,-397r118,0r-185,517r-128,0","w":519,"k":{".":74,",":74}},"w":{"d":"12,-516r121,0r102,387r97,-387r115,0r95,387r107,-387r116,0r-163,516r-117,0r-97,-383r-96,383r-120,0","w":778,"k":{".":55,",":55}},"x":{"d":"198,-271r-179,-245r138,0r108,159r113,-159r132,0r-175,239r197,277r-137,0r-131,-190r-127,190r-134,0","w":537},"y":{"d":"515,-516r-191,506v-37,99,-65,207,-192,207v-24,0,-40,-1,-79,-6r0,-96v31,6,46,7,60,7v58,0,73,-72,88,-117r-198,-501r125,0r138,380r130,-380r119,0","w":519,"k":{".":92,",":92}},"z":{"d":"462,-516r0,80r-292,344r307,0r0,92r-455,0r0,-87r288,-339r-268,0r0,-90r420,0","w":500},"{":{"d":"-24,-300v91,-14,128,-46,128,-129r0,-76v0,-162,77,-209,216,-215r0,61v-105,4,-118,83,-118,200v0,104,-22,175,-139,189v144,20,141,112,139,250v0,83,30,132,118,139r0,61v-145,-7,-216,-50,-216,-213v0,-124,2,-191,-128,-206r0,-61","w":296},"|":{"d":"61,214r0,-1000r100,0r0,1000r-100,0","w":222},"}":{"d":"320,-239v-130,16,-128,81,-128,206v0,163,-71,206,-216,213r0,-61v111,-7,118,-86,118,-199v0,-106,18,-172,139,-190v-139,-16,-139,-112,-139,-247v0,-93,-34,-134,-118,-142r0,-61v139,6,216,53,216,215r0,76v0,83,37,115,128,129r0,61","w":296},"~":{"d":"175,-339v78,0,196,68,262,67v34,0,57,-24,65,-68r65,0v-11,106,-62,163,-143,163v-85,0,-181,-69,-259,-69v-34,0,-61,28,-67,71r-65,0v8,-82,48,-164,142,-164","w":600},"\u0410":{"d":"400,-713r275,713r-134,0r-68,-189r-282,0r-70,189r-129,0r275,-713r133,0xm440,-283r-106,-300r-111,300r217,0","w":667,"k":{"\u0442":26,"\u2019":74,"\u201d":74,"\u040b":58,"\u0402":58,"\u0427":57,"\u0422":92}},"\u0411":{"d":"657,-221v0,141,-88,221,-243,221r-338,0r0,-712r524,0r0,108r-399,0r0,164r213,0v156,0,243,79,243,219xm532,-218v0,-75,-47,-120,-125,-120r-206,0r0,236r208,0v82,0,123,-39,123,-116","w":704,"k":{"\u0427":26,"\u0422":32,"\u041b":24}},"\u0412":{"d":"74,-712r325,0v154,0,231,73,231,179v0,69,-42,126,-102,150v81,20,134,81,134,173v0,126,-92,210,-225,210r-363,0r0,-712xm196,-611r0,196v126,-5,310,31,310,-98v0,-89,-65,-98,-136,-98r-174,0xm196,-325r0,223v143,-9,341,44,341,-111v0,-162,-197,-99,-341,-112","w":704,"k":{"\u041b":24}},"\u0413":{"d":"201,0r-125,0r0,-712r483,0r0,108r-358,0r0,604","w":563,"k":{"\u044e":120,"\u0446":120,"\u0443":120,"\u0440":120,"\u043e":137,"\u043d":120,"\u043c":120,"\u043b":144,"\u0438":120,"\u0436":120,"\u0435":137,"\u0434":144,"\u0432":120,"\u0430":137,"\u041b":76,"\u0414":57,"\u0410":104,";":87,":":87,"\/":97,".":136,"-":107,",":136}},"\u0414":{"d":"711,177r-121,0r0,-177r-464,0r0,177r-121,0r0,-285r69,0v66,-115,102,-376,93,-604r464,0r0,604r80,0r0,285xm506,-108r0,-496r-217,0v5,190,-33,399,-81,496r298,0","w":722},"\u0415":{"d":"587,-712r0,105r-389,0r0,189r361,0r0,101r-361,0r0,210r395,0r0,107r-519,0r0,-712r513,0","w":630},"\u0416":{"d":"382,-320r-233,320r-156,0r308,-410r-274,-302r154,0r278,320r0,-320r125,0r0,320r278,-320r154,0r-274,302r308,410r-156,0r-233,-320r-77,86r0,234r-125,0r0,-234","w":1043,"k":{"\u042d":18,"\u0421":18,"\u041e":18}},"\u0417":{"d":"604,-206v0,88,-72,222,-272,222v-169,0,-300,-80,-300,-252r123,0v0,110,83,153,184,153v90,0,140,-44,140,-125v0,-76,-52,-114,-133,-114r-87,0r0,-97r87,0v64,0,114,-44,114,-111v0,-63,-46,-100,-126,-100v-88,0,-147,36,-155,125r-119,0v6,-159,121,-224,266,-224v141,0,257,59,257,193v0,75,-59,139,-114,153r0,3v79,16,135,83,135,174","w":648,"k":{"\u041b":18}},"\u0418":{"d":"73,0r0,-712r125,0r0,546r306,-546r145,0r0,712r-125,0r0,-546r-306,546r-145,0","w":722},"\u0419":{"d":"525,-892v-10,96,-62,141,-164,141v-102,0,-154,-45,-164,-141r58,0v13,52,46,76,106,76v60,0,93,-24,106,-76r58,0xm73,0r0,-712r125,0r0,546r306,-546r145,0r0,712r-125,0r0,-546r-306,546r-145,0","w":722},"\u041a":{"d":"671,-712r-285,284r303,428r-155,0r-234,-341r-102,102r0,239r-124,0r0,-712r124,0r0,323r315,-323r158,0","w":685,"k":{"\u0404":18,"\u042d":18,"\u0424":32,"\u0421":18,"\u041e":18}},"\u041b":{"d":"632,0r-125,0r0,-604r-220,0r-13,339v-8,199,-89,278,-191,278v-28,0,-57,-7,-75,-13r0,-96v15,6,39,8,49,8v51,0,90,-30,96,-211r14,-413r465,0r0,712","w":704},"\u041c":{"d":"815,-712r0,712r-119,0r0,-549r-198,549r-102,0r-203,-549r0,549r-118,0r0,-712r175,0r199,557r192,-557r174,0","w":889},"\u041d":{"d":"649,-712r0,712r-125,0r0,-320r-326,0r0,320r-125,0r0,-712r125,0r0,283r326,0r0,-283r125,0","w":722},"\u041e":{"d":"382,-729v201,0,340,152,340,373v0,222,-139,373,-342,373v-204,0,-342,-151,-342,-373v0,-209,126,-373,344,-373xm380,-624v-131,0,-216,105,-216,266v0,166,84,270,218,270v130,0,214,-106,214,-269v0,-163,-84,-267,-216,-267","w":760,"k":{"\u0425":18,"\u0422":18,"\u041b":18,"\u0416":18}},"\u041f":{"d":"649,-712r0,712r-125,0r0,-604r-326,0r0,604r-125,0r0,-712r576,0","w":722},"\u0420":{"d":"77,-712r309,0v147,0,248,68,248,217v0,135,-87,221,-231,221r-201,0r0,274r-125,0r0,-712xm202,-608r0,233v139,-4,313,32,310,-117v-3,-151,-171,-110,-310,-116","w":667,"k":{"\u0434":32,"\u041b":63,"\u0416":26,"\u0414":48,"\u0410":74,"\/":68,".":169,",":169}},"\u0421":{"d":"685,-271v-13,173,-132,288,-310,288v-201,0,-333,-148,-333,-373v0,-202,123,-372,339,-372v142,0,274,78,298,243r-124,0v-17,-86,-84,-137,-176,-137v-150,0,-211,135,-211,266v0,132,58,267,210,267v116,0,169,-77,182,-182r125,0","w":722,"k":{"\u0425":18,"\u0422":18,"\u041b":18,"\u0416":18}},"\u0422":{"d":"586,-712r0,108r-227,0r0,604r-125,0r0,-604r-227,0r0,-108r579,0","w":593,"k":{"\u044e":80,"\u044d":88,"\u044c":80,"\u044b":80,"\u0449":80,"\u0443":88,"\u0440":80,"\u043e":88,"\u043d":80,"\u043c":80,"\u043b":88,"\u043a":80,"\u0438":80,"\u0435":88,"\u0432":80,"\u0430":88,"\u044f":88,"\u0451":56,"\u0454":88,"\u0404":18,"\u042d":18,"\u0424":32,"\u0421":18,"\u041e":18,"\u041b":36,"\u0410":92,";":83,":":83,"\/":97,".":111,"-":107,",":111}},"\u0423":{"d":"240,-198r-245,-514r138,0r172,382r176,-382r135,0r-277,567v-78,152,-153,188,-287,144r0,-105v13,8,36,18,80,18v46,0,71,-41,108,-110","w":611,"k":{"\u044e":56,"\u044d":64,"\u0449":56,"\u0448":56,"\u0447":32,"\u0446":56,"\u0445":56,"\u0444":64,"\u0442":56,"\u0441":64,"\u0440":56,"\u043f":56,"\u043e":64,"\u043d":56,"\u043c":56,"\u043b":72,"\u043a":56,"\u0439":48,"\u0438":56,"\u0437":64,"\u0436":56,"\u0435":64,"\u0434":72,"\u0433":56,"\u0432":56,"\u0431":64,"\u0430":64,"\u044f":56,"\u0459":72,"\u0409":32,"\u0408":97,"\u0424":32,"\u0421":26,"\u041e":26,"\u041b":42,"\u0417":26,"\u0414":48,"\u0410":72,";":46,":":46,"\/":68,".":129,"-":48,",":129}},"\u0424":{"d":"773,-359v0,186,-154,276,-307,279r0,80r-125,0r0,-80v-152,-3,-307,-93,-307,-279v0,-181,144,-279,307,-284r0,-69r125,0r0,69v166,6,307,103,307,284xm648,-359v0,-116,-74,-165,-182,-176r0,347v109,-13,182,-55,182,-171xm341,-188r0,-347v-108,11,-182,60,-182,176v0,116,73,158,182,171","w":807,"k":{"\u0422":32,"\u041b":26}},"\u0425":{"d":"-6,0r254,-369r-236,-343r149,0r162,252r169,-252r140,0r-236,343r253,369r-152,0r-178,-272r-181,272r-144,0","w":648},"\u0426":{"d":"646,-108r78,0r0,285r-121,0r0,-177r-533,0r0,-712r125,0r0,604r326,0r0,-604r125,0r0,604","w":734},"\u0427":{"d":"487,-312v-46,8,-131,20,-187,20v-218,0,-250,-138,-250,-217r0,-203r125,0r0,165v0,58,2,144,145,144v66,0,127,-9,167,-17r0,-292r125,0r0,712r-125,0r0,-312","w":685},"\u0428":{"d":"73,0r0,-712r125,0r0,604r276,0r0,-604r125,0r0,604r276,0r0,-604r125,0r0,712r-927,0","w":1073},"\u0429":{"d":"70,0r0,-712r125,0r0,604r276,0r0,-604r125,0r0,604r276,0r0,-604r125,0r0,604r78,0r0,285r-121,0r0,-177r-884,0","w":1085},"\u042a":{"d":"780,-221v0,141,-88,221,-243,221r-315,0r0,-604r-214,0r0,-108r339,0r0,272r190,0v156,0,243,79,243,219xm655,-218v0,-75,-47,-120,-125,-120r-183,0r0,236r185,0v82,0,123,-39,123,-116","w":813,"k":{"\u2019":77,"\u201d":77}},"\u042b":{"d":"614,-221v0,141,-88,221,-243,221r-295,0r0,-712r125,0r0,272r170,0v156,0,243,79,243,219xm489,-218v0,-75,-47,-120,-125,-120r-163,0r0,236r165,0v82,0,123,-39,123,-116xm698,-712r125,0r0,712r-125,0r0,-712","w":896},"\u042c":{"d":"634,-221v0,141,-88,221,-243,221r-315,0r0,-712r125,0r0,272r190,0v156,0,243,79,243,219xm509,-218v0,-75,-47,-120,-125,-120r-183,0r0,236r185,0v82,0,123,-39,123,-116","w":667,"k":{"\u2019":77,"\u201d":77,"\u0427":59,"\u0423":29,"\u0422":64}},"\u042d":{"d":"680,-356v0,225,-132,373,-333,373v-167,0,-282,-101,-306,-256r126,0v20,88,73,150,177,150v137,0,198,-110,208,-228r-304,0r0,-101r301,0v-17,-108,-80,-204,-206,-204v-87,0,-152,46,-173,124r-125,0v29,-156,157,-230,296,-230v216,0,339,170,339,372","w":722,"k":{"\u0425":18,"\u0422":18,"\u041b":18,"\u0416":18}},"\u042e":{"d":"653,-729v188,0,327,152,327,373v0,222,-140,373,-329,373v-182,0,-315,-136,-328,-339r-125,0r0,322r-125,0r0,-712r125,0r0,283r129,0v27,-173,146,-300,326,-300xm651,-624v-119,0,-203,105,-203,266v0,166,86,270,205,270v117,0,201,-106,201,-269v0,-163,-81,-267,-203,-267","w":1018,"k":{"\u0425":18,"\u0422":18,"\u041b":18,"\u0416":18}},"\u042f":{"d":"612,0r-125,0r0,-294r-142,0r-202,294r-156,0r219,-306v-126,-39,-154,-119,-154,-209v0,-118,84,-197,236,-197r324,0r0,712xm487,-389r0,-221r-186,0v-85,0,-124,32,-124,106v0,75,42,115,122,115r188,0","w":685},"\u2020":{"d":"523,-511r0,97r-191,0r0,574r-110,0r0,-574r-189,0r0,-97r189,0r0,-201r110,0r0,201r191,0"},"\u00b0":{"d":"200,-706v89,0,161,72,161,161v0,89,-72,161,-161,161v-89,0,-161,-72,-161,-161v0,-89,72,-161,161,-161xm200,-624v-44,0,-79,35,-79,79v0,43,35,79,79,79v44,0,79,-36,79,-79v0,-44,-35,-79,-79,-79","w":400},"\u0490":{"d":"559,-869r0,265r-358,0r0,604r-125,0r0,-712r358,0r0,-157r125,0","w":563,"k":{"\u043e":137,"\u0435":137,"\u0430":137,"\u0414":57,"\u0410":104,";":87,":":87,".":136}},"\u00a3":{"d":"403,14v-65,0,-150,-41,-210,-41v-41,0,-70,18,-103,39r-54,-81v80,-49,144,-151,86,-251r-89,0r0,-63r58,0v-22,-29,-42,-98,-42,-133v0,-122,98,-205,240,-205v154,0,242,88,242,239r-113,0v-3,-80,-38,-141,-129,-141v-69,0,-119,47,-119,113v0,45,27,89,48,127r146,0r0,63r-118,1v30,108,4,149,-88,230v88,-50,161,2,251,2v34,0,69,-14,94,-39r51,85v-39,39,-97,55,-151,55"},"\u00a7":{"d":"479,-541r-105,0v-4,-61,-37,-94,-93,-94v-50,0,-84,28,-84,71v0,55,50,73,160,134v78,43,174,88,174,190v0,66,-38,120,-103,147v36,29,55,68,55,115v0,98,-83,168,-201,168v-129,0,-208,-72,-211,-191r107,0v7,63,36,100,105,100v52,0,88,-30,88,-74v0,-55,-50,-81,-196,-158v-77,-40,-150,-86,-150,-183v0,-68,41,-124,105,-143v-105,-108,-10,-265,153,-265v119,0,196,72,196,183xm189,-405v-37,11,-63,44,-63,80v0,39,28,61,59,78r181,102v35,-12,62,-45,62,-79v0,-38,-26,-59,-56,-76"},"\u2022":{"d":"250,-534v98,0,178,80,178,178v0,98,-80,178,-178,178v-98,0,-178,-80,-178,-178v0,-98,80,-178,178,-178","w":500},"\u00b6":{"d":"569,-635r-54,0r0,817r-93,0r0,-817r-111,0r0,817r-94,0r0,-431v-125,-10,-200,-94,-200,-222v0,-148,100,-241,260,-241r292,0r0,77","w":600},"\u0406":{"d":"202,-712r0,712r-126,0r0,-712r126,0","w":278},"\u00ae":{"d":"199,-729v103,0,187,83,187,186v1,103,-84,187,-187,187v-103,0,-186,-84,-186,-187v0,-102,83,-186,186,-186xm199,-697v-85,0,-154,69,-154,154v0,85,69,155,154,155v85,0,154,-70,154,-155v0,-85,-69,-154,-154,-154xm122,-646v73,3,164,-18,164,60v0,26,-11,40,-37,49v37,4,29,59,39,96r-46,0v-3,-9,-4,-12,-4,-28v0,-51,-24,-50,-70,-49r0,77r-46,0r0,-205xm168,-554v34,1,76,0,71,-28v5,-27,-37,-28,-71,-27r0,55","w":400},"\u00a9":{"d":"400,-729v206,0,373,167,373,373v0,206,-167,373,-373,373v-206,0,-373,-167,-373,-373v0,-206,167,-373,373,-373xm400,-680v-179,0,-324,145,-324,324v0,179,145,324,324,324v179,0,324,-145,324,-324v0,-178,-145,-324,-324,-324xm585,-288v-9,87,-83,150,-175,150v-118,0,-206,-93,-206,-219v0,-128,83,-220,197,-220v99,0,176,65,182,155r-76,0v-10,-56,-49,-90,-104,-90v-70,0,-117,61,-117,152v0,96,48,157,122,157v54,0,89,-30,101,-85r76,0","w":800},"\u2122":{"d":"218,-356r0,-301r-115,0r0,-55r299,0r0,55r-114,0r0,301r-70,0xm460,-356r0,-356r105,0r90,251r89,-251r103,0r0,356r-63,0r0,-293r-103,293r-54,0r-103,-293r0,293r-64,0","w":990},"\u0402":{"d":"752,-160v0,175,-115,297,-278,279r0,-95v85,0,153,-70,153,-187v0,-113,-49,-181,-145,-181v-89,0,-143,68,-143,181r0,163r-125,0r0,-604r-206,0r0,-108r578,0r0,108r-247,0r0,243v39,-56,92,-81,162,-81v159,0,251,115,251,282","w":778},"\u0452":{"d":"521,-103v0,165,-134,288,-294,294r0,-99v134,-20,180,-108,180,-257v0,-77,-34,-116,-99,-116v-75,0,-127,56,-127,136r0,145r-114,0r0,-431r-52,0r0,-85r52,0r0,-196r114,0r0,196r227,0r0,85r-227,0v2,46,-4,100,2,142v37,-56,92,-82,160,-82v111,0,178,66,178,176r0,92","w":574,"k":{"\u0443":32}},"\u2260":{"d":"216,-198r61,-119r-236,0r0,-95r285,0r77,-152r84,43r-56,109r127,0r0,95r-176,0r-61,119r237,0r0,96r-286,0r-77,151r-84,-43r56,-108r-126,0r0,-96r175,0","w":600},"\u0403":{"d":"201,0r-125,0r0,-712r483,0r0,108r-358,0r0,604xm431,-900r-135,143r-82,0r85,-143r132,0","w":563,"k":{";":87,":":87,".":136}},"\u0453":{"d":"421,-426r-247,0r0,426r-114,0r0,-516r361,0r0,90xm354,-727r-134,143r-82,0r85,-143r131,0","w":426},"\u221e":{"d":"399,-312v51,-58,108,-118,192,-118v95,0,161,70,161,171v0,103,-65,174,-161,174v-81,0,-141,-55,-192,-111v-60,54,-103,110,-192,110v-96,0,-163,-70,-163,-171v0,-101,66,-172,160,-172v86,0,142,58,195,117xm451,-255v36,38,86,83,141,83v47,0,79,-34,79,-84v0,-52,-33,-87,-81,-87v-51,0,-105,52,-139,88xm346,-255v-64,-63,-104,-87,-143,-87v-44,0,-77,36,-77,86v0,50,32,83,81,83v55,0,102,-45,139,-82","w":796},"\u00b1":{"d":"249,-115r0,-158r-207,0r0,-96r207,0r0,-162r102,0r0,162r208,0r0,96r-208,0r0,158r-102,0xm42,16r0,-95r517,0r0,95r-517,0","w":600},"\u2264":{"d":"38,-271r0,-97r517,-181r0,101r-386,128r386,123r0,101xm38,-62r517,0r0,96r-517,0r0,-96","w":600},"\u2265":{"d":"562,-271r-517,175r0,-101r386,-123r-386,-128r0,-101r517,181r0,97xm562,-62r0,96r-517,0r0,-96r517,0","w":600},"\u0456":{"d":"177,-715r0,112r-114,0r0,-112r114,0xm177,-516r0,516r-114,0r0,-516r114,0","w":241},"\u00b5":{"d":"56,191r0,-707r114,0r0,229v0,89,-4,211,111,211v114,0,124,-121,124,-211r0,-229r114,0r0,516r-97,0r0,-71v-36,53,-75,82,-143,82v-67,0,-101,-41,-109,-56r0,236r-114,0","w":574},"\u0491":{"d":"423,-670r0,244r-249,0r0,426r-114,0r0,-516r249,0r0,-154r114,0","w":426,"k":{"\u043e":18,"\u0435":18,"\u0430":18}},"\u0408":{"d":"470,-712r0,501v0,150,-75,228,-219,228v-177,0,-231,-100,-226,-267r119,0v-2,92,4,165,103,165v94,0,98,-68,98,-143r0,-484r125,0","w":537},"\u0404":{"d":"682,-239v-24,155,-139,256,-306,256v-201,0,-333,-148,-333,-373v0,-202,123,-372,339,-372v139,0,267,74,296,230r-125,0v-21,-78,-86,-124,-173,-124v-126,0,-189,96,-206,204r301,0r0,101r-304,0v10,118,71,228,208,228v104,0,157,-62,177,-150r126,0","w":722},"\u0454":{"d":"525,-176v-22,116,-112,189,-234,189v-157,0,-254,-110,-254,-266v0,-170,100,-279,257,-279v127,0,210,65,228,175r-114,0v-16,-56,-56,-87,-113,-87v-76,0,-126,52,-139,139r196,0r0,80r-197,0v9,93,58,148,136,148v62,0,105,-35,121,-99r113,0"},"\u0407":{"d":"202,-712r0,712r-126,0r0,-712r126,0xm294,-880r0,109r-111,0r0,-109r111,0xm95,-880r0,109r-112,0r0,-109r112,0","w":278},"\u0457":{"d":"177,-516r0,516r-114,0r0,-516r114,0xm276,-712r0,109r-112,0r0,-109r112,0xm77,-712r0,109r-112,0r0,-109r112,0","w":241},"\u0409":{"d":"1002,-221v0,141,-88,221,-243,221r-270,0r0,-604r-202,0r-13,339v-8,199,-89,278,-191,278v-28,0,-57,-7,-75,-13r0,-96v15,6,39,8,49,8v51,0,90,-30,96,-211r14,-413r447,0r0,272r145,0v156,0,243,79,243,219xm877,-218v0,-75,-47,-120,-125,-120r-138,0r0,236r140,0v82,0,123,-39,123,-116","w":1035,"k":{"\u2019":77,"\u201d":77,"\u0427":59,"\u0423":29,"\u0422":64}},"\u0459":{"d":"787,-160v0,102,-63,160,-175,160r-236,0r0,-426r-135,0r-7,226v-4,165,-90,242,-224,201r0,-89v75,15,109,4,113,-123r9,-305r358,0r0,197r121,0v113,0,176,58,176,159xm673,-158v0,-45,-27,-72,-76,-72r-107,0r0,141r109,0v52,0,74,-27,74,-69","w":817,"k":{"\u0443":48,"\u0442":56,"\u2019":58,"\u201d":58}},"\u040a":{"d":"482,-338r-284,0r0,338r-125,0r0,-712r125,0r0,271r284,0r0,-271r125,0r0,272r152,0v156,0,243,79,243,219v0,141,-88,221,-243,221r-277,0r0,-338xm877,-218v0,-75,-47,-120,-125,-120r-145,0r0,236r147,0v82,0,123,-39,123,-116","w":1035,"k":{"\u2019":77,"\u201d":77,"\u0423":29,"\u0422":64}},"\u045a":{"d":"787,-160v0,102,-63,160,-175,160r-242,0r0,-230r-196,0r0,230r-114,0r0,-516r114,0r0,196r196,0r0,-196r114,0r0,197r127,0v113,0,176,58,176,159xm673,-158v0,-45,-27,-72,-76,-72r-113,0r0,141r115,0v52,0,74,-27,74,-69","w":817,"k":{"\u0443":48,"\u0442":56,"\u2019":58,"\u201d":58}},"\u0458":{"d":"181,-516r0,543v7,136,-64,185,-200,168r0,-93v46,4,86,8,86,-45r0,-573r114,0xm181,-716r0,113r-114,0r0,-113r114,0","w":241},"\u0405":{"d":"587,-502r-119,0v-8,-89,-67,-125,-155,-125v-85,0,-136,37,-136,99v0,68,44,72,181,108v121,31,257,60,257,213v0,161,-143,223,-283,223v-169,0,-300,-80,-300,-252r123,0v0,110,83,153,184,153v96,0,153,-42,153,-112v0,-74,-61,-87,-166,-114v-151,-39,-268,-64,-268,-209v0,-127,103,-208,263,-208v145,0,260,65,266,224","w":648},"\u00ac":{"d":"42,-317r0,-96r517,0r0,311r-98,0r0,-215r-419,0","w":600},"\u221a":{"d":"559,-786r-212,1000r-95,0r-156,-322r-49,23r-37,-80r136,-63r137,289r173,-847r103,0","w":600},"\u0192":{"d":"440,-438r-15,80r-101,0r-62,330v-25,134,-55,197,-203,197v-17,0,-29,-1,-59,-3r15,-89v16,1,24,1,39,1v78,0,80,-54,92,-114r62,-322r-92,0r15,-80r92,0r20,-108v22,-144,106,-182,258,-166r-17,89v-81,-8,-109,2,-126,86r-20,99r102,0"},"\u2248":{"d":"175,-438v78,0,196,68,262,67v34,0,57,-24,65,-68r65,0v-11,106,-62,163,-143,163v-85,0,-181,-69,-259,-69v-34,0,-61,28,-67,71r-65,0v8,-82,48,-164,142,-164xm175,-239v78,0,196,68,262,67v34,0,57,-24,65,-68r65,0v-11,106,-62,163,-143,163v-85,0,-181,-69,-259,-69v-34,0,-61,28,-67,71r-65,0v8,-82,48,-164,142,-164","w":600},"\u2206":{"d":"387,-696r285,696r-662,0r273,-696r104,0xm147,-91r383,0r-196,-493","w":682},"\u00ab":{"d":"402,-441r0,104r-95,72r95,74r0,103r-155,-121r0,-110xm207,-441r0,102r-97,73r97,75r0,104r-157,-124r0,-108","w":463},"\u00bb":{"d":"256,-442r157,125r0,108r-157,121r0,-102r96,-72r-96,-76r0,-104xm61,-441r154,122r0,109r-154,120r0,-101r95,-72r-95,-74r0,-104","w":463},"\u2026":{"d":"108,0r0,-130r117,0r0,130r-117,0xm441,0r0,-130r117,0r0,130r-117,0xm774,0r0,-130r118,0r0,130r-118,0","w":1000},"\ue001":{"w":278},"\u040b":{"d":"492,-442v218,0,250,138,250,217r0,225r-125,0r0,-187v0,-58,-2,-144,-145,-144v-50,0,-96,5,-133,11r0,320r-125,0r0,-604r-206,0r0,-108r578,0r0,108r-247,0r0,176v47,-7,109,-14,153,-14","w":778},"\u045b":{"d":"521,0r-114,0r0,-165v0,-77,-34,-116,-99,-116v-75,0,-127,56,-127,136r0,145r-114,0r0,-431r-52,0r0,-85r52,0r0,-196r114,0r0,196r227,0r0,85r-227,0v2,46,-4,100,2,142v37,-56,92,-82,160,-82v111,0,178,66,178,176r0,195","w":574,"k":{"\u0443":32}},"\u040c":{"d":"671,-712r-285,284r303,428r-155,0r-234,-341r-102,102r0,239r-124,0r0,-712r124,0r0,323r315,-323r158,0xm491,-900r-135,143r-82,0r85,-143r132,0","w":685},"\u045c":{"d":"417,-727r-134,143r-82,0r85,-143r131,0xm542,0r-138,0r-162,-231r-68,71r0,160r-114,0r0,-516r114,0r0,229r206,-229r139,0r-201,207","w":537},"\u0455":{"d":"469,-366r-109,0v-8,-63,-51,-82,-112,-82v-58,0,-92,22,-92,60v0,52,49,56,132,75v90,21,200,44,200,158v0,104,-87,170,-225,170v-146,0,-226,-62,-232,-180r109,0v6,68,54,97,125,97v67,0,111,-29,111,-75v0,-52,-58,-61,-123,-77v-118,-29,-211,-44,-211,-155v0,-98,79,-156,211,-156v118,0,216,48,216,165","w":519},"\u2013":{"d":"500,-327r0,104r-500,0r0,-104r500,0","w":500},"\u2014":{"d":"1000,-327r0,104r-1000,0r0,-104r1000,0","w":1000},"\u201c":{"d":"59,-441r0,-123v0,-87,60,-147,126,-160r0,57v-46,17,-61,51,-61,98r61,0r0,128r-126,0xm256,-441r0,-123v0,-87,60,-147,126,-160r0,57v-46,17,-61,51,-61,98r61,0r0,128r-126,0","w":444,"k":{"\u043b":58,"\u0434":58,"\u0459":58,"\u0409":48,"\u041b":48,"\u0414":58,"\u0410":74}},"\u201d":{"d":"383,-712r0,123v0,87,-60,147,-126,160r0,-57v46,-17,61,-51,61,-98r-61,0r0,-128r126,0xm186,-712r0,123v0,87,-60,147,-126,160r0,-57v46,-17,61,-51,61,-98r-61,0r0,-128r126,0","w":444},"\u2018":{"d":"67,-437r0,-110v0,-101,44,-162,137,-178r0,59v-41,13,-63,45,-65,97r65,0r0,132r-137,0","w":278,"k":{"\u043b":58,"\u0434":58,"\u2018":79,"\u0459":58,"\u0409":48,"\u041b":48,"\u0414":58,"\u0410":74}},"\u2019":{"d":"210,-712r0,110v0,101,-44,162,-137,178r0,-59v41,-13,63,-45,65,-97r-65,0r0,-132r137,0","w":278,"k":{"\u2019":79,"t":18,"s":74}},"\u00f7":{"d":"42,-210r0,-95r517,0r0,95r-517,0xm241,-9r0,-130r118,0r0,130r-118,0xm241,-376r0,-130r118,0r0,130r-118,0","w":600},"\u201e":{"d":"384,-128r0,123v0,87,-60,147,-126,160r0,-57v46,-17,61,-51,61,-98r-61,0r0,-128r126,0xm187,-128r0,123v0,87,-60,147,-126,160r0,-57v46,-17,61,-51,61,-98r-61,0r0,-128r126,0","w":444},"\u040e":{"d":"240,-199r-245,-513r138,0r172,382r176,-382r135,0r-277,567v-78,152,-153,188,-287,144r0,-105v13,8,36,18,80,18v46,0,71,-42,108,-111xm473,-892v-10,96,-62,141,-164,141v-102,0,-154,-45,-164,-141r58,0v13,52,46,76,106,76v60,0,93,-24,106,-76r58,0","w":611},"\u045e":{"d":"429,-729v-10,96,-62,141,-164,141v-102,0,-154,-45,-164,-141r58,0v13,52,46,76,106,76v60,0,93,-24,106,-76r58,0xm515,-516r-191,506v-37,98,-65,207,-192,207v-24,0,-40,-1,-79,-6r0,-96v31,6,46,7,60,7v58,0,73,-72,88,-117r-198,-501r125,0r138,380r130,-380r119,0","w":519},"\u040f":{"d":"524,-108r0,-604r125,0r0,712r-226,0r0,177r-125,0r0,-177r-225,0r0,-712r125,0r0,604r326,0","w":722},"\u045f":{"d":"400,-90r0,-426r114,0r0,516r-171,0r0,164r-114,0r0,-164r-169,0r0,-516r114,0r0,426r226,0","w":574},"\u2116":{"d":"1004,-279v0,101,-58,158,-163,158v-104,0,-163,-57,-163,-155v0,-98,60,-156,163,-156v102,0,163,59,163,153xm620,0r-132,0r-298,-507r0,507r-119,0r0,-696r132,0r298,508r0,-508r119,0r0,696xm917,-276v0,-55,-34,-91,-76,-91v-43,0,-76,35,-76,91v0,56,33,90,76,90v42,0,76,-36,76,-90xm1004,0r-325,0r0,-85r325,0r0,85","w":1068},"\u0401":{"d":"587,-712r0,105r-389,0r0,189r361,0r0,101r-361,0r0,210r395,0r0,107r-519,0r0,-712r513,0xm484,-881r0,108r-111,0r0,-108r111,0xm285,-881r0,108r-112,0r0,-108r112,0","w":630},"\u0451":{"d":"433,-712r0,109r-111,0r0,-109r111,0xm234,-712r0,109r-111,0r0,-109r111,0xm522,-161v-26,113,-118,178,-234,178v-159,0,-254,-115,-254,-269v0,-162,105,-279,250,-279v155,0,249,116,245,301r-381,0v3,104,54,163,142,163v63,0,100,-28,123,-94r109,0xm415,-306v-7,-87,-57,-140,-132,-140v-75,0,-122,49,-133,140r265,0"},"\u044f":{"d":"496,0r-114,0r0,-208r-97,0r-159,208r-134,0r172,-221v-91,-29,-111,-87,-111,-152v0,-90,60,-143,170,-143r273,0r0,516xm382,-291r0,-138v-86,5,-215,-27,-215,66v0,47,26,72,76,72r139,0"},"\u0430":{"d":"55,-357v13,-127,100,-175,226,-175v122,0,212,45,212,156r0,262v-1,43,18,40,53,36r0,80v-76,20,-141,20,-158,-51v-47,45,-113,62,-181,62v-107,0,-174,-59,-174,-154v0,-137,128,-150,231,-163v79,-10,102,-15,113,-30v23,-63,-10,-115,-99,-115v-74,0,-106,25,-115,92r-108,0xm383,-259v-80,48,-224,-3,-233,114v-7,100,164,90,210,36v34,-40,19,-90,23,-150"},"\u0431":{"d":"307,14v-167,0,-260,-116,-260,-306v0,-99,15,-226,65,-303v46,-71,109,-101,207,-108v63,-5,92,-3,104,-28r114,0v-20,122,-116,117,-230,126v-100,8,-156,88,-181,194r3,0v41,-67,93,-106,193,-106v131,0,234,103,234,265v0,161,-99,266,-249,266xm442,-252v0,-106,-57,-175,-140,-175v-83,0,-140,68,-140,175v0,107,57,176,140,176v83,0,140,-69,140,-176","w":593,"k":{"\u0445":12,"\u0443":12,"\u0442":12,"\u043b":24,"\u0436":12,"\u0434":12}},"\u0432":{"d":"521,-146v0,93,-68,146,-190,146r-271,0r0,-516r285,0v96,0,153,46,153,126v0,59,-29,84,-74,111v65,17,97,64,97,133xm331,-228r-157,0r0,142v93,-7,234,32,234,-70v0,-45,-27,-72,-77,-72xm385,-373v0,-87,-132,-49,-211,-57r0,119v83,-7,211,30,211,-62","k":{"\u043b":18}},"\u0433":{"d":"421,-426r-247,0r0,426r-114,0r0,-516r361,0r0,90","w":426,"k":{"\u0441":18,"\u043e":18,"\u043b":55,"\u0435":18,"\u0434":38,"\u0430":18,"\/":68,".":107,"-":77,",":107}},"\u0434":{"d":"590,164r-108,0r0,-164r-367,0r0,164r-108,0r0,-254r65,0v44,-94,65,-246,61,-426r388,0r0,426r69,0r0,254xm409,-90r0,-338r-167,0v5,128,-29,282,-53,338r220,0","w":600,"k":{"\/":-29}},"\u0435":{"d":"522,-161v-26,113,-118,178,-234,178v-159,0,-254,-115,-254,-269v0,-162,105,-279,250,-279v155,0,249,116,245,301r-381,0v3,104,54,163,142,163v63,0,100,-28,123,-94r109,0xm415,-306v-7,-87,-57,-140,-132,-140v-75,0,-122,49,-133,140r265,0","k":{"\u0445":12,"\u0443":12,"\u0442":12,"\u043b":18,"\u0436":12,"\u0434":12,"\u0459":18}},"\u0436":{"d":"787,0r-137,0r-158,-224r-48,54r0,170r-110,0r0,-170r-48,-54r-158,224r-137,0r222,-296r-197,-220r138,0r177,218r3,0r0,-218r110,0r0,218r3,0r177,-218r138,0r-197,220","w":778,"k":{"\u044d":12,"\u0441":12,"\u043e":12,"\u0435":12}},"\u0437":{"d":"482,-153v0,112,-111,167,-220,167v-150,0,-228,-68,-233,-175r115,0v10,71,67,87,117,87v64,0,107,-28,107,-77v0,-43,-22,-76,-101,-76r-64,0r0,-84v74,2,149,0,149,-68v0,-38,-27,-65,-94,-65v-61,0,-89,32,-99,77r-115,0v12,-131,121,-164,225,-164v106,0,196,38,196,139v0,62,-45,97,-83,111v48,9,100,48,100,128","w":519,"k":{"\u043b":18}},"\u0438":{"d":"204,0r-144,0r0,-516r114,0r0,376r3,0r193,-376r144,0r0,516r-114,0r0,-376r-3,0","w":574},"\u0439":{"d":"451,-729v-10,96,-62,141,-164,141v-102,0,-154,-45,-164,-141r58,0v13,52,46,76,106,76v60,0,93,-24,106,-76r58,0xm204,0r-144,0r0,-516r114,0r0,376r3,0r193,-376r144,0r0,516r-114,0r0,-376r-3,0","w":574},"\u043a":{"d":"542,0r-138,0r-162,-231r-68,71r0,160r-114,0r0,-516r114,0r0,229r206,-229r139,0r-201,207","w":537,"k":{"\u044d":12,"\u0441":12,"\u043e":12,"\u0435":12}},"\u043b":{"d":"516,0r-114,0r0,-426r-158,0r-7,226v-4,165,-90,242,-224,201r0,-89v75,15,109,4,113,-123r9,-305r381,0r0,516","w":574},"\u043c":{"d":"170,0r-110,0r0,-516r150,0r144,410r2,0r139,-410r150,0r0,516r-110,0r0,-343r-2,0r-123,343r-115,0r-123,-343r-2,0r0,343","w":704},"\u043d":{"d":"174,0r-114,0r0,-516r114,0r0,202r226,0r0,-202r114,0r0,516r-114,0r0,-224r-226,0r0,224","w":574},"\u043e":{"d":"299,-531v158,0,258,106,258,273v0,168,-100,274,-258,274v-161,0,-263,-106,-263,-274v0,-166,103,-273,263,-273xm297,-441v-90,0,-146,70,-146,183v0,116,55,185,147,185v90,0,144,-70,144,-186v0,-113,-55,-182,-145,-182","w":593,"k":{"\u0445":12,"\u0443":12,"\u0442":12,"\u043b":24,"\u0436":12,"\u0434":12,"\u0459":18}},"\u043f":{"d":"174,0r-114,0r0,-516r454,0r0,516r-114,0r0,-426r-226,0r0,426","w":574},"\u0440":{"d":"169,-516r0,69v36,-58,101,-84,168,-84v143,0,235,108,235,275v0,163,-90,269,-229,269v-70,0,-127,-24,-168,-81r0,259r-113,0r0,-707r107,0xm314,-439v-90,0,-143,68,-143,181v0,112,54,180,145,180v87,0,141,-68,141,-178v0,-112,-55,-183,-143,-183","w":611,"k":{"\u0445":12,"\u0443":12,"\u0442":12,"\u043b":24,"\u0436":12,"\u0434":12}},"\u0441":{"d":"528,-195v-16,127,-108,208,-237,208v-157,0,-254,-110,-254,-266v0,-170,100,-279,257,-279v132,0,217,70,230,189r-113,0v-13,-65,-54,-101,-116,-101v-88,0,-142,70,-142,185v0,114,51,182,138,182v68,0,113,-42,125,-118r112,0","k":{"\u0445":12,"\u0443":12,"\u0442":12,"\u043b":18,"\u0436":12,"\u0434":12}},"\u0442":{"d":"459,-426r-170,0r0,426r-114,0r0,-426r-170,0r0,-90r454,0r0,90","w":464,"k":{"\u044d":18,"\u0441":18,"\u043e":18,"\u043b":42,"\u0435":18,"\u0430":18,"\u0454":18,".":87,"-":56,",":87}},"\u0443":{"d":"515,-516r-191,506v-37,99,-65,207,-192,207v-24,0,-40,-1,-79,-6r0,-96v31,6,46,7,60,7v58,0,73,-72,88,-117r-198,-501r125,0r138,380r130,-380r119,0","w":519,"k":{"\u044d":12,"\u0444":12,"\u0441":12,"\u043e":12,"\u043b":34,"\u0435":12,"\u0434":18,"\u0430":12,"\u0459":18,".":92,",":92}},"\u0444":{"d":"790,-266v0,144,-56,280,-210,280v-38,0,-87,-23,-107,-48r-3,0r0,225r-114,0r0,-225r-3,0v-20,25,-69,48,-107,48v-154,0,-210,-136,-210,-280v0,-163,80,-265,203,-265v44,0,95,26,114,53r3,0r0,-234r114,0r0,234r3,0v19,-27,70,-53,114,-53v123,0,203,102,203,265xm676,-264v0,-112,-36,-179,-113,-179v-34,0,-79,15,-93,61r0,251v6,30,40,57,88,57v90,0,118,-93,118,-190xm356,-131r0,-251v-14,-46,-59,-61,-93,-61v-77,0,-113,67,-113,179v0,97,28,190,118,190v48,0,82,-27,88,-57","w":826,"k":{"\u0443":12,"\u0442":12,"\u043b":24}},"\u0445":{"d":"198,-271r-179,-245r138,0r108,159r113,-159r132,0r-175,239r197,277r-137,0r-131,-190r-127,190r-134,0","w":537,"k":{"\u044d":12,"\u0441":12,"\u043e":12,"\u0435":12}},"\u0446":{"d":"514,-90r69,0r0,254r-110,0r0,-164r-413,0r0,-516r114,0r0,426r226,0r0,-426r114,0r0,426","w":590},"\u0447":{"d":"367,-219v-32,10,-106,27,-168,27v-103,0,-163,-54,-163,-154r0,-170r114,0r0,130v0,66,31,98,94,98v39,0,97,-14,123,-25r0,-203r114,0r0,516r-114,0r0,-219","w":537},"\u0448":{"d":"60,0r0,-516r114,0r0,426r176,0r0,-426r114,0r0,426r176,0r0,-426r114,0r0,516r-694,0","w":814},"\u0449":{"d":"60,0r0,-516r114,0r0,426r176,0r0,-426r114,0r0,426r176,0r0,-426r114,0r0,426r69,0r0,254r-110,0r0,-164r-653,0","w":830},"\u044a":{"d":"600,-165v0,102,-63,165,-175,165r-272,0r0,-426r-147,0r0,-90r261,0r0,187r157,0v113,0,176,63,176,164xm486,-163v0,-45,-27,-77,-76,-77r-143,0r0,151r145,0v52,0,74,-32,74,-74","w":630},"\u044b":{"d":"553,-516r114,0r0,516r-114,0r0,-516xm482,-165v0,102,-63,165,-175,165r-252,0r0,-516r114,0r0,187r137,0v113,0,176,63,176,164xm368,-163v0,-45,-27,-77,-76,-77r-123,0r0,151r125,0v52,0,74,-32,74,-74","w":722},"\u044c":{"d":"507,-165v0,102,-63,165,-175,165r-272,0r0,-516r114,0r0,187r157,0v113,0,176,63,176,164xm393,-163v0,-45,-27,-77,-76,-77r-143,0r0,151r145,0v52,0,74,-32,74,-74","w":537,"k":{"\u0447":32,"\u0442":56,"\u2019":58,"\u201d":58}},"\u044d":{"d":"520,-253v0,156,-97,266,-254,266v-122,0,-212,-73,-234,-189r113,0v16,64,59,99,121,99v78,0,127,-55,136,-148r-192,0r0,-80r191,0v-13,-87,-63,-139,-139,-139v-57,0,-97,31,-113,87r-114,0v18,-110,101,-175,228,-175v157,0,257,109,257,279","k":{"\u0445":12,"\u0443":12,"\u0442":12,"\u043b":24,"\u0436":12,"\u0434":12}},"\u044e":{"d":"518,-531v152,0,248,106,248,273v0,168,-96,274,-248,274v-145,0,-240,-93,-251,-242r-93,0r0,226r-114,0r0,-516r114,0r0,204r95,0v19,-135,113,-219,249,-219xm516,-441v-85,0,-136,70,-136,183v0,116,50,185,137,185v85,0,134,-70,134,-186v0,-113,-50,-182,-135,-182","w":802,"k":{"\u0445":12,"\u0442":12,"\u043b":24,"\u0436":12,"\u0434":12}},"\u00a4":{"d":"34,-160r66,-66v-47,-71,-51,-167,0,-240r-66,-66r58,-58r66,66v70,-49,170,-49,241,0r65,-66r58,58r-66,66v48,66,50,172,0,240r66,66r-58,58r-66,-66v-69,50,-171,48,-240,0r-66,66xm278,-474v-71,0,-128,58,-128,128v0,71,57,128,128,128v70,0,128,-57,128,-128v0,-70,-57,-128,-128,-128"},"\ue000":{"d":"341,-328r0,106r-293,0r0,-106r293,0","w":389},"\u201a":{"d":"202,-128v3,142,5,255,-125,283r0,-56v42,-17,60,-46,62,-99r-62,0r0,-128r125,0","w":278},"\u2021":{"d":"523,-518r0,96r-192,0r0,292r192,0r0,96r-192,0r0,193r-108,0r0,-193r-190,0r0,-96r190,0r0,-292r-190,0r0,-96r190,0r0,-194r108,0r0,194r192,0"},"\u2030":{"d":"657,-725r-453,756r-74,0r455,-756r72,0xm579,-328v92,0,144,59,144,165v0,114,-51,175,-144,175v-97,0,-147,-57,-147,-168v0,-113,51,-172,147,-172xm924,-329v94,0,145,59,145,167v0,112,-52,174,-145,174v-96,0,-146,-58,-146,-168v0,-112,51,-173,146,-173xm225,-707v94,0,145,59,145,169v0,109,-54,172,-147,172v-93,0,-144,-59,-144,-169v0,-111,52,-172,146,-172xm578,-269v-44,0,-65,37,-65,113v0,75,20,108,66,108v42,0,62,-37,62,-113v0,-72,-21,-108,-63,-108xm923,-269v-43,0,-65,38,-65,113v0,71,23,108,66,108v42,0,63,-38,63,-112v0,-74,-21,-109,-64,-109xm224,-647v-43,0,-64,39,-64,115v0,71,21,105,64,105v42,0,64,-37,64,-110v0,-75,-21,-110,-64,-110","w":1148},"\u2039":{"d":"197,-440r0,103r-94,72r94,74r0,104r-154,-123r0,-109","w":259},"\u203a":{"d":"61,-441r154,122r0,111r-154,119r0,-102r95,-72r-95,-74r0,-104","w":259},"\u00a6":{"d":"61,89r0,-250r100,0r0,250r-100,0xm61,-411r0,-250r100,0r0,250r-100,0","w":222},"\u00b7":{"d":"207,-358r0,135r-136,0r0,-135r136,0","w":278},"\u00a0":{"w":278}}});
